{"learner":{"attributes":{"scikit_learn":"{\"_estimator_type\": \"regressor\"}"},"feature_names":[],"feature_types":[],"gradient_booster":{"model":{"cats":{"enc":[],"feature_segments":[],"sorted_idx":[]},"gbtree_model_param":{"num_parallel_tree":"1","num_trees":"800"},"iteration_indptr":[0,1,2,3,4,5,6,7,8,9,10,11,12,13,14,15,16,17,18,19,20,21,22,23,24,25,26,27,28,29,30,31,32,33,34,35,36,37,38,39,40,41,42,43,44,45,46,47,48,49,50,51,52,53,54,55,56,57,58,59,60,61,62,63,64,65,66,67,68,69,70,71,72,73,74,75,76,77,78,79,80,81,82,83,84,85,86,87,88,89,90,91,92,93,94,95,96,97,98,99,100,101,102,103,104,105,106,107,108,109,110,111,112,113,114,115,116,117,118,119,120,121,122,123,124,125,126,127,128,129,130,131,132,133,134,135,136,137,138,139,140,141,142,143,144,145,146,147,148,149,150,151,152,153,154,155,156,157,158,159,160,161,162,163,164,165,166,167,168,169,170,171,172,173,174,175,176,177,178,179,180,181,182,183,184,185,186,187,188,189,190,191,192,193,194,195,196,197,198,199,200,201,202,203,204,205,206,207,208,209,210,211,212,213,214,215,216,217,218,219,220,221,222,223,224,225,226,227,228,229,230,231,232,233,234,235,236,237,238,239,240,241,242,243,244,245,246,247,248,249,250,251,252,253,254,255,256,257,258,259,260,261,262,263,264,265,266,267,268,269,270,271,272,273,274,275,276,277,278,279,280,281,282,283,284,285,286,287,288,289,290,291,292,293,294,295,296,297,298,299,300,301,302,303,304,305,306,307,308,309,310,311,312,313,314,315,316,317,318,319,320,321,322,323,324,325,326,327,328,329,330,331,332,333,334,335,336,337,338,339,340,341,342,343,344,345,346,347,348,349,350,351,352,353,354,355,356,357,358,359,360,361,362,363,364,365,366,367,368,369,370,371,372,373,374,375,376,377,378,379,380,381,382,383,384,385,386,387,388,389,390,391,392,393,394,395,396,397,398,399,400,401,402,403,404,405,406,407,408,409,410,411,412,413,414,415,416,417,418,419,420,421,422,423,424,425,426,427,428,429,430,431,432,433,434,435,436,437,438,439,440,441,442,443,444,445,446,447,448,449,450,451,452,453,454,455,456,457,458,459,460,461,462,463,464,465,466,467,468,469,470,471,472,473,474,475,476,477,478,479,480,481,482,483,484,485,486,487,488,489,490,491,492,493,494,495,496,497,498,499,500,501,502,503,504,505,506,507,508,509,510,511,512,513,514,515,516,517,518,519,520,521,522,523,524,525,526,527,528,529,530,531,532,533,534,535,536,537,538,539,540,541,542,543,544,545,546,547,548,549,550,551,552,553,554,555,556,557,558,559,560,561,562,563,564,565,566,567,568,569,570,571,572,573,574,575,576,577,578,579,580,581,582,583,584,585,586,587,588,589,590,591,592,593,594,595,596,597,598,599,600,601,602,603,604,605,606,607,608,609,610,611,612,613,614,615,616,617,618,619,620,621,622,623,624,625,626,627,628,629,630,631,632,633,634,635,636,637,638,639,640,641,642,643,644,645,646,647,648,649,650,651,652,653,654,655,656,657,658,659,660,661,662,663,664,665,666,667,668,669,670,671,672,673,674,675,676,677,678,679,680,681,682,683,684,685,686,687,688,689,690,691,692,693,694,695,696,697,698,699,700,701,702,703,704,705,706,707,708,709,710,711,712,713,714,715,716,717,718,719,720,721,722,723,724,725,726,727,728,729,730,731,732,733,734,735,736,737,738,739,740,741,742,743,744,745,746,747,748,749,750,751,752,753,754,755,756,757,758,759,760,761,762,763,764,765,766,767,768,769,770,771,772,773,774,775,776,777,778,779,780,781,782,783,784,785,786,787,788,789,790,791,792,793,794,795,796,797,798,799,800],"tree_info":[0,0,0,0,0,0,0,0,0,0,0,0,0,0,0,0,0,0,0,0,0,0,0,0,0,0,0,0,0,0,0,0,0,0,0,0,0,0,0,0,0,0,0,0,0,0,0,0,0,0,0,0,0,0,0,0,0,0,0,0,0,0,0,0,0,0,0,0,0,0,0,0,0,0,0,0,0,0,0,0,0,0,0,0,0,0,0,0,0,0,0,0,0,0,0,0,0,0,0,0,0,0,0,0,0,0,0,0,0,0,0,0,0,0,0,0,0,0,0,0,0,0,0,0,0,0,0,0,0,0,0,0,0,0,0,0,0,0,0,0,0,0,0,0,0,0,0,0,0,0,0,0,0,0,0,0,0,0,0,0,0,0,0,0,0,0,0,0,0,0,0,0,0,0,0,0,0,0,0,0,0,0,0,0,0,0,0,0,0,0,0,0,0,0,0,0,0,0,0,0,0,0,0,0,0,0,0,0,0,0,0,0,0,0,0,0,0,0,0,0,0,0,0,0,0,0,0,0,0,0,0,0,0,0,0,0,0,0,0,0,0,0,0,0,0,0,0,0,0,0,0,0,0,0,0,0,0,0,0,0,0,0,0,0,0,0,0,0,0,0,0,0,0,0,0,0,0,0,0,0,0,0,0,0,0,0,0,0,0,0,0,0,0,0,0,0,0,0,0,0,0,0,0,0,0,0,0,0,0,0,0,0,0,0,0,0,0,0,0,0,0,0,0,0,0,0,0,0,0,0,0,0,0,0,0,0,0,0,0,0,0,0,0,0,0,0,0,0,0,0,0,0,0,0,0,0,0,0,0,0,0,0,0,0,0,0,0,0,0,0,0,0,0,0,0,0,0,0,0,0,0,0,0,0,0,0,0,0,0,0,0,0,0,0,0,0,0,0,0,0,0,0,0,0,0,0,0,0,0,0,0,0,0,0,0,0,0,0,0,0,0,0,0,0,0,0,0,0,0,0,0,0,0,0,0,0,0,0,0,0,0,0,0,0,0,0,0,0,0,0,0,0,0,0,0,0,0,0,0,0,0,0,0,0,0,0,0,0,0,0,0,0,0,0,0,0,0,0,0,0,0,0,0,0,0,0,0,0,0,0,0,0,0,0,0,0,0,0,0,0,0,0,0,0,0,0,0,0,0,0,0,0,0,0,0,0,0,0,0,0,0,0,0,0,0,0,0,0,0,0,0,0,0,0,0,0,0,0,0,0,0,0,0,0,0,0,0,0,0,0,0,0,0,0,0,0,0,0,0,0,0,0,0,0,0,0,0,0,0,0,0,0,0,0,0,0,0,0,0,0,0,0,0,0,0,0,0,0,0,0,0,0,0,0,0,0,0,0,0,0,0,0,0,0,0,0,0,0,0,0,0,0,0,0,0,0,0,0,0,0,0,0,0,0,0,0,0,0,0,0,0,0,0,0,0,0,0,0,0,0,0,0,0,0,0,0,0,0,0,0,0,0,0,0,0,0,0,0,0,0,0,0,0,0,0,0,0,0,0,0,0,0,0,0,0,0,0,0,0,0,0,0,0,0,0,0,0,0,0,0,0,0,0,0,0,0,0,0,0,0,0,0,0,0,0,0,0,0,0,0,0,0,0,0,0,0,0,0,0,0,0,0,0,0,0,0,0,0,0,0,0,0,0,0,0,0,0,0,0,0,0,0,0,0,0,0,0,0,0,0,0,0,0,0,0,0,0,0,0,0,0,0,0,0,0,0,0,0,0,0,0,0,0,0,0,0,0,0,0,0,0,0,0,0,0,0,0,0,0,0,0,0,0,0,0,0,0,0,0,0],"trees":[{"base_weights":[-9.606723E-4,-4.5245412E-1,1.9129335E0,-1.0082712E0,-1.96333E-1,1.5582721E0,3.3791945E0,-3.1817034E-2,-2.094419E-2,-3.470529E-1,9.268901E-2,1.2596505E0,1.9165816E0,8.275426E-2,4.411273E0,-4.1846654E-1,-2.3962417E-1,2.312967E-2,4.0727347E-1,9.6502924E-1,4.096109E-2,5.3842243E-2,6.611182E-2,1.4114675E-1,1.1884602E-2,-4.8462543E-1,-3.7327155E-1,-2.7974108E-1,-1.7803584E-1,-4.989816E-2,8.669767E-2,3.026185E-1,4.9343514E-1,9.763233E-1,5.835461E-3,-1.6122358E-2,-1.3604174E-2,-1.2037555E-2,-1.0487308E-2,-8.967919E-3,-7.598468E-3,-5.7763536E-3,-3.9805677E-3,-2.1759607E-3,-5.277564E-4,1.9330834E-3,4.3469467E-3,9.451463E-3,1.8260747E-3,1.7338565E-2,1.0881705E-2,2.9609663E-2,6.64576E-3],"categories":[],"categories_nodes":[],"categories_segments":[],"categories_sizes":[],"default_left":[0,0,0,0,0,0,0,0,0,0,0,0,0,0,0,0,0,0,0,0,0,0,0,0,0,0,0,0,0,0,0,0,0,0,0,0,0,0,0,0,0,0,0,0,0,0,0,0,0,0,0,0,0],"id":0,"left_children":[1,3,5,7,9,11,13,-1,-1,15,17,19,21,-1,23,25,27,29,31,33,-1,-1,-1,-1,-1,35,37,39,41,43,45,47,49,51,-1,-1,-1,-1,-1,-1,-1,-1,-1,-1,-1,-1,-1,-1,-1,-1,-1,-1,-1],"loss_changes":[1.8561111E3,2.4721768E2,2.0794507E2,8.147461E0,5.191376E1,3.3109314E1,3.8441406E1,0E0,0E0,5.9067993E0,8.940435E0,4.413452E0,1.2578125E0,0E0,3.1145752E1,1.2214432E0,7.284775E-1,1.5641164E0,5.179539E-1,2.6260757E-1,0E0,0E0,0E0,0E0,0E0,6.380844E-2,4.735565E-2,2.024746E-2,5.8018208E-2,1.1352494E-1,2.2387755E-1,8.90038E-2,2.2120953E-1,1.9192123E-1,0E0,0E0,0E0,0E0,0E0,0E0,0E0,0E0,0E0,0E0,0E0,0E0,0E0,0E0,0E0,0E0,0E0,0E0,0E0],"parents":[2147483647,0,0,1,1,2,2,3,3,4,4,5,5,6,6,9,9,10,10,11,11,12,12,14,14,15,15,16,16,17,17,18,18,19,19,25,25,26,26,27,27,28,28,29,29,30,30,31,31,32,32,33,33],"right_children":[2,4,6,8,10,12,14,-1,-1,16,18,20,22,-1,24,26,28,30,32,34,-1,-1,-1,-1,-1,36,38,40,42,44,46,48,50,52,-1,-1,-1,-1,-1,-1,-1,-1,-1,-1,-1,-1,-1,-1,-1,-1,-1,-1,-1],"split_conditions":[7.8712225E-1,-5.437581E-1,2.5568826E0,-9.120888E-1,-5.1802818E-2,1.6376723E0,3.9404387E0,-3.1817034E-2,-2.094419E-2,-2.6079845E-1,2.6323456E-1,1.2137959E0,2.1804507E0,8.275426E-2,2.1645026E0,-3.6687654E-1,-1.7074105E-1,7.523659E-2,4.3862668E-1,2.0882862E0,4.096109E-2,5.3842243E-2,6.611182E-2,1.4114675E-1,1.1884602E-2,-4.4044095E-1,-3.179789E-1,-2.0812269E-1,-7.373538E-3,2.0526452E-2,1.827678E-1,7.8712225E-1,9.432242E-1,2.1804507E0,5.835461E-3,-1.6122358E-2,-1.3604174E-2,-1.2037555E-2,-1.0487308E-2,-8.967919E-3,-7.598468E-3,-5.7763536E-3,-3.9805677E-3,-2.1759607E-3,-5.277564E-4,1.9330834E-3,4.3469467E-3,9.451463E-3,1.8260747E-3,1.7338565E-2,1.0881705E-2,2.9609663E-2,6.64576E-3],"split_indices":[58,58,58,47,58,58,57,0,0,58,58,58,58,0,1,58,58,58,58,41,0,0,0,0,0,58,58,58,38,58,58,49,3,42,0,0,0,0,0,0,0,0,0,0,0,0,0,0,0,0,0,0,0],"split_type":[0,0,0,0,0,0,0,0,0,0,0,0,0,0,0,0,0,0,0,0,0,0,0,0,0,0,0,0,0,0,0,0,0,0,0,0,0,0,0,0,0,0,0,0,0,0,0,0,0,0,0,0,0],"sum_hessian":[2.146E3,1.737E3,4.09E2,5.47E2,1.19E3,3.31E2,7.8E1,4.66E2,8.1E1,7.82E2,4.08E2,1.83E2,1.48E2,5.1E1,2.7E1,4.68E2,3.14E2,3.35E2,7.3E1,5.1E1,1.32E2,1.09E2,3.9E1,2.5E1,2E0,1.86E2,2.82E2,1.88E2,1.26E2,1.56E2,1.79E2,3.5E1,3.8E1,5E1,1E0,6.3E1,1.23E2,1.22E2,1.6E2,1.03E2,8.5E1,9.3E1,3.3E1,9.1E1,6.5E1,1.31E2,4.8E1,3.3E1,2E0,2.1E1,1.7E1,4.9E1,1E0],"tree_param":{"num_deleted":"0","num_feature":"60","num_nodes":"53","size_leaf_vector":"1"}},{"base_weights":[-1.7926235E-3,-4.3558043E-1,1.8797802E0,-9.777853E-1,-1.9037624E-1,1.6539031E0,3.9702008E0,-3.0874586E-2,-2.0296E-2,-3.3705387E-1,8.532723E-2,1.3272893E0,2.092116E0,4.187614E0,1.697752E0,-4.0388325E-1,-2.2872669E-1,1.563255E-2,4.1519186E-1,1.1337751E0,4.435817E-2,5.5012323E-2,7.342484E-2,7.303259E-2,1.3429064E-1,5.8981102E-2,9.369199E-3,-4.6031556E-1,-1.0606942E-2,-2.5830802E-1,-1.6757251E-1,-5.242543E-2,7.8632176E-2,3.462364E-1,5.7716423E-1,3.4233473E-2,6.546074E-3,-1.5557883E-2,-1.3065868E-2,-8.570298E-3,-7.160784E-3,-5.301874E-3,-3.8122495E-3,-2.4818596E-3,-8.5970183E-4,1.9314741E-3,3.9915284E-3,3.5061466E-3,1.0877248E-2,1.9071896E-2,8.229641E-3],"categories":[],"categories_nodes":[],"categories_segments":[],"categories_sizes":[],"default_left":[0,0,0,0,0,0,0,0,0,0,0,0,0,0,0,0,0,0,0,0,0,0,0,0,0,0,0,0,0,0,0,0,0,0,0,0,0,0,0,0,0,0,0,0,0,0,0,0,0,0,0],"id":1,"left_children":[1,3,5,7,9,11,13,-1,-1,15,17,19,21,23,25,27,29,31,33,35,-1,-1,-1,-1,-1,-1,-1,37,-1,39,41,43,45,47,49,-1,-1,-1,-1,-1,-1,-1,-1,-1,-1,-1,-1,-1,-1,-1,-1],"loss_changes":[1.7295375E3,2.2875534E2,1.8088843E2,7.5980835E0,4.8030483E1,4.874872E1,1.1664734E1,0E0,0E0,5.5181885E0,9.4883E0,4.443512E0,9.468506E0,6.314087E0,1.244463E0,1.1945724E0,4.9580193E-1,1.4704908E0,6.0432434E-1,3.9621735E-1,0E0,0E0,0E0,0E0,0E0,0E0,0E0,9.482956E-2,0E0,3.864193E-2,1.4624357E-2,1.16473556E-1,1.2946427E-1,1.5624237E-1,1.8032932E-1,0E0,0E0,0E0,0E0,0E0,0E0,0E0,0E0,0E0,0E0,0E0,0E0,0E0,0E0,0E0,0E0],"parents":[2147483647,0,0,1,1,2,2,3,3,4,4,5,5,6,6,9,9,10,10,11,11,12,12,13,13,14,14,15,15,16,16,17,17,18,18,19,19,27,27,29,29,30,30,31,31,32,32,33,33,34,34],"right_children":[2,4,6,8,10,12,14,-1,-1,16,18,20,22,24,26,28,30,32,34,36,-1,-1,-1,-1,-1,-1,-1,38,-1,40,42,44,46,48,50,-1,-1,-1,-1,-1,-1,-1,-1,-1,-1,-1,-1,-1,-1,-1,-1],"split_conditions":[9.277121E-1,-5.437581E-1,2.8742812E0,-9.5837086E-1,-5.1802818E-2,1.7994415E0,2.6167512E0,-3.0874586E-2,-2.0296E-2,-2.5189805E-1,2.6323456E-1,1.4038646E0,2.2942667E0,1.7250777E0,2.0564992E0,-3.5545135E-1,-1.5272231E-1,7.523659E-2,5.22036E-1,2.1804507E0,4.435817E-2,5.5012323E-2,7.342484E-2,7.303259E-2,1.3429064E-1,5.8981102E-2,9.369199E-3,-4.4044095E-1,-1.0606942E-2,-2.0812269E-1,-7.923054E-2,3.3795831E-3,1.827678E-1,7.523659E-2,7.8712225E-1,3.4233473E-2,6.546074E-3,-1.5557883E-2,-1.3065868E-2,-8.570298E-3,-7.160784E-3,-5.301874E-3,-3.8122495E-3,-2.4818596E-3,-8.5970183E-4,1.9314741E-3,3.9915284E-3,3.5061466E-3,1.0877248E-2,1.9071896E-2,8.229641E-3],"split_indices":[58,58,58,27,58,58,17,0,0,58,58,58,58,21,0,58,58,58,58,42,0,0,0,0,0,0,0,58,0,58,58,58,58,39,0,0,0,0,0,0,0,0,0,0,0,0,0,0,0,0,0],"split_type":[0,0,0,0,0,0,0,0,0,0,0,0,0,0,0,0,0,0,0,0,0,0,0,0,0,0,0,0,0,0,0,0,0,0,0,0,0,0,0,0,0,0,0,0,0,0,0,0,0,0,0],"sum_hessian":[2.117E3,1.721E3,3.96E2,5.35E2,1.186E3,3.59E2,3.7E1,4.55E2,8E1,7.74E2,4.12E2,2.08E2,1.51E2,3.3E1,4E0,4.77E2,2.97E2,3.41E2,7.1E1,9.5E1,1.13E2,9.1E1,6E1,6E0,2.7E1,3E0,1E0,2.21E2,2.56E2,1.98E2,9.9E1,1.64E2,1.77E2,5.2E1,1.9E1,9.4E1,1E0,6E1,1.61E2,7.7E1,1.21E2,7.8E1,2.1E1,7.1E1,9.3E1,1.42E2,3.5E1,4E0,4.8E1,1.5E1,4E0],"tree_param":{"num_deleted":"0","num_feature":"60","num_nodes":"51","size_leaf_vector":"1"}},{"base_weights":[5.5162446E-3,-4.3192682E-1,1.7646492E0,-9.4996744E-1,-1.829617E-1,1.4436973E0,2.9254317E0,-2.9920192E-2,-2.005774E-2,-3.2894832E-1,8.047736E-2,1.2062894E0,5.5060808E-2,7.595404E-2,3.9620156E0,-4.0182984E-1,-2.4168223E-1,1.3259457E-2,3.8368708E-1,2.8359475E-2,3.9372794E-2,1.2342424E-1,9.22866E-3,-1.3831447E-2,-1.0917432E-2,-2.787597E-1,-1.8343236E-1,-5.1662978E-2,8.126799E-2,3.097237E-1,1.6668236E-2,-9.032898E-3,-7.530478E-3,-6.076373E-3,-4.1022706E-3,-2.5025588E-3,-7.513827E-4,1.8365014E-3,3.941192E-3,5.753638E-3,9.965054E-3],"categories":[],"categories_nodes":[],"categories_segments":[],"categories_sizes":[],"default_left":[0,0,0,0,0,0,0,0,0,0,0,0,0,0,0,0,0,0,0,0,0,0,0,0,0,0,0,0,0,0,0,0,0,0,0,0,0,0,0,0,0],"id":2,"left_children":[1,3,5,7,9,11,13,-1,-1,15,17,19,-1,-1,21,23,25,27,29,-1,-1,-1,-1,-1,-1,31,33,35,37,39,-1,-1,-1,-1,-1,-1,-1,-1,-1,-1,-1],"loss_changes":[1.6229115E3,2.1766336E2,1.5224988E2,6.637726E0,4.3946175E1,2.856366E1,2.6691711E1,0E0,0E0,4.577545E0,8.31041E0,4.5484314E0,0E0,0E0,1.1520721E1,7.280884E-1,6.767025E-1,1.483317E0,7.688875E-1,0E0,0E0,0E0,0E0,0E0,0E0,5.0840378E-2,9.188652E-2,1.4329147E-1,1.5672374E-1,7.923412E-2,0E0,0E0,0E0,0E0,0E0,0E0,0E0,0E0,0E0,0E0,0E0],"parents":[2147483647,0,0,1,1,2,2,3,3,4,4,5,5,6,6,9,9,10,10,11,11,14,14,15,15,16,16,17,17,18,18,25,25,26,26,27,27,28,28,29,29],"right_children":[2,4,6,8,10,12,14,-1,-1,16,18,20,-1,-1,22,24,26,28,30,-1,-1,-1,-1,-1,-1,32,34,36,38,40,-1,-1,-1,-1,-1,-1,-1,-1,-1,-1,-1],"split_conditions":[7.8712225E-1,-5.379456E-1,2.4367092E0,-7.8969944E-1,-6.0594223E-2,1.7250777E0,3.9404387E0,-2.9920192E-2,-2.005774E-2,-2.774004E-1,2.6323456E-1,1.238935E0,5.5060808E-2,7.595404E-2,2.1645026E0,-3.7325212E-1,-1.8371019E-1,8.3773695E-2,5.22036E-1,2.8359475E-2,3.9372794E-2,1.2342424E-1,9.22866E-3,-1.3831447E-2,-1.0917432E-2,-2.2766721E-1,-1.1087233E-1,3.3795831E-3,1.734678E-1,3.1957948E-1,1.6668236E-2,-9.032898E-3,-7.530478E-3,-6.076373E-3,-4.1022706E-3,-2.5025588E-3,-7.513827E-4,1.8365014E-3,3.941192E-3,5.753638E-3,9.965054E-3],"split_indices":[59,59,59,59,59,59,59,0,0,59,59,59,0,0,1,59,59,59,59,0,0,0,0,0,0,59,59,59,59,59,0,0,0,0,0,0,0,0,0,0,0],"split_type":[0,0,0,0,0,0,0,0,0,0,0,0,0,0,0,0,0,0,0,0,0,0,0,0,0,0,0,0,0,0,0,0,0,0,0,0,0,0,0,0,0],"sum_hessian":[2.107E3,1.688E3,4.19E2,5.47E2,1.141E3,3.3E2,8.9E1,4.66E2,8.1E1,7.34E2,4.07E2,2.08E2,1.22E2,6.7E1,2.2E1,3.98E2,3.36E2,3.34E2,7.3E1,6.3E1,1.45E2,2.1E1,1E0,1.51E2,2.47E2,2.03E2,1.33E2,1.71E2,1.63E2,5.3E1,2E1,1.07E2,9.6E1,9.2E1,4.1E1,7.7E1,9.4E1,1.18E2,4.5E1,1E1,4.3E1],"tree_param":{"num_deleted":"0","num_feature":"60","num_nodes":"41","size_leaf_vector":"1"}},{"base_weights":[1.4364447E-3,-4.118625E-1,1.7886988E0,-9.1689223E-1,-1.7550708E-1,1.556583E0,3.9568624E0,-2.909547E-2,-1.9541727E-2,-3.160699E-1,8.079841E-2,1.2457912E0,2.018553E0,4.0450425E0,9.090231E-3,-3.887559E-1,-2.2998777E-1,2.0783903E-2,4.1655988E-1,3.1599827E-2,4.1580375E-2,5.3378806E-2,6.965193E-2,1.0487017E-1,1.5227124E-1,-1.3329208E-2,-1.0573033E-2,-2.6633674E-1,-1.8236211E-1,-4.9446538E-2,8.789869E-2,3.3817524E-1,1.8539658E-2,-8.609141E-3,-7.1872785E-3,-5.888326E-3,-4.081703E-3,-2.1524897E-3,-3.8552948E-4,1.9732842E-3,4.881242E-3,1.0542111E-2,5.544124E-3],"categories":[],"categories_nodes":[],"categories_segments":[],"categories_sizes":[],"default_left":[0,0,0,0,0,0,0,0,0,0,0,0,0,0,0,0,0,0,0,0,0,0,0,0,0,0,0,0,0,0,0,0,0,0,0,0,0,0,0,0,0,0,0],"id":3,"left_children":[1,3,5,7,9,11,13,-1,-1,15,17,19,21,23,-1,25,27,29,31,-1,-1,-1,-1,-1,-1,-1,-1,33,35,37,39,41,-1,-1,-1,-1,-1,-1,-1,-1,-1,-1,-1],"loss_changes":[1.6125226E3,2.1147595E2,2.0017957E2,7.312195E0,4.35822E1,5.0895752E1,1.1339966E1,0E0,0E0,4.797287E0,8.635932E0,4.612274E0,6.6046753E0,3.7733154E0,0E0,6.948776E-1,5.746422E-1,1.724774E0,8.1729126E-1,0E0,0E0,0E0,0E0,0E0,0E0,0E0,0E0,4.2793274E-2,7.574797E-2,1.4517692E-1,2.9877794E-1,3.447342E-2,0E0,0E0,0E0,0E0,0E0,0E0,0E0,0E0,0E0,0E0,0E0],"parents":[2147483647,0,0,1,1,2,2,3,3,4,4,5,5,6,6,9,9,10,10,11,11,12,12,13,13,15,15,16,16,17,17,18,18,27,27,28,28,29,29,30,30,31,31],"right_children":[2,4,6,8,10,12,14,-1,-1,16,18,20,22,24,-1,26,28,30,32,-1,-1,-1,-1,-1,-1,-1,-1,34,36,38,40,42,-1,-1,-1,-1,-1,-1,-1,-1,-1,-1,-1],"split_conditions":[9.277121E-1,-5.379456E-1,3.0940301E0,-9.6523684E-1,-6.0594223E-2,1.8334446E0,2.5083482E0,-2.909547E-2,-1.9541727E-2,-2.7463946E-1,3.1957948E-1,1.4038646E0,2.2942667E0,3.0940301E0,9.090231E-3,-3.7325212E-1,-1.8371019E-1,8.3773695E-2,6.59211E-1,3.1599827E-2,4.1580375E-2,5.3378806E-2,6.965193E-2,1.0487017E-1,1.5227124E-1,-1.3329208E-2,-1.0573033E-2,-2.2410706E-1,7.792487E-2,2.6956528E-2,1.9085081E-1,1.6027247E0,1.8539658E-2,-8.609141E-3,-7.1872785E-3,-5.888326E-3,-4.081703E-3,-2.1524897E-3,-3.8552948E-4,1.9732842E-3,4.881242E-3,1.0542111E-2,5.544124E-3],"split_indices":[59,59,59,36,59,59,9,0,0,59,59,59,59,32,0,59,59,59,59,0,0,0,0,0,0,0,0,59,4,59,59,50,0,0,0,0,0,0,0,0,0,0,0],"split_type":[0,0,0,0,0,0,0,0,0,0,0,0,0,0,0,0,0,0,0,0,0,0,0,0,0,0,0,0,0,0,0,0,0,0,0,0,0,0,0,0,0,0,0],"sum_hessian":[2.181E3,1.772E3,4.09E2,5.64E2,1.208E3,3.71E2,3.8E1,4.68E2,9.6E1,7.8E2,4.28E2,2.24E2,1.47E2,3.7E1,1E0,4.21E2,3.59E2,3.64E2,6.4E1,9.8E1,1.26E2,8.6E1,6.1E1,2.7E1,1E1,1.62E2,2.59E2,2.01E2,1.58E2,1.78E2,1.86E2,4.8E1,1.6E1,1.08E2,9.3E1,1.19E2,3.9E1,1.1E2,6.8E1,1.45E2,4.1E1,4.3E1,5E0],"tree_param":{"num_deleted":"0","num_feature":"60","num_nodes":"43","size_leaf_vector":"1"}},{"base_weights":[7.681976E-3,-4.070423E-1,1.7106805E0,-8.9844394E-1,-1.7370848E-1,1.5282643E0,3.8918207E0,-2.8265819E-2,-1.8858984E-2,-3.1090078E-1,7.131765E-2,1.2191633E0,2.0188196E0,3.9981077E0,8.953877E-3,-3.8572666E-1,-2.2968803E-1,9.920941E-3,3.9831322E-1,1.0349303E0,4.1063253E-2,5.4159813E-2,6.854959E-2,9.796907E-2,1.5098996E-1,-1.3346853E-2,-3.5182846E-1,-2.739718E-1,-1.8365563E-1,-3.8484458E-2,9.209913E-2,3.1987554E-1,1.6326424E-2,2.5321193E-2,3.2636464E-2,-1.12130875E-2,-9.808329E-3,-8.697159E-3,-7.40849E-3,-6.124892E-3,-4.529007E-3,-2.4391788E-3,-3.0217913E-4,2.1233503E-3,4.427422E-3,1.0030895E-2,4.026131E-3],"categories":[],"categories_nodes":[],"categories_segments":[],"categories_sizes":[],"default_left":[0,0,0,0,0,0,0,0,0,0,0,0,0,0,0,0,0,0,0,0,0,0,0,0,0,0,0,0,0,0,0,0,0,0,0,0,0,0,0,0,0,0,0,0,0,0,0],"id":4,"left_children":[1,3,5,7,9,11,13,-1,-1,15,17,19,21,23,-1,25,27,29,31,33,-1,-1,-1,-1,-1,-1,35,37,39,41,43,45,-1,-1,-1,-1,-1,-1,-1,-1,-1,-1,-1,-1,-1,-1,-1],"loss_changes":[1.5255437E3,1.9900943E2,1.623534E2,6.006317E0,3.965508E1,5.697821E1,1.1028412E1,0E0,0E0,4.505478E0,8.508463E0,5.2813416E0,4.3984985E0,7.062958E0,0E0,6.297035E-1,6.937332E-1,1.4276212E0,5.9267616E-1,2.2398376E-1,0E0,0E0,0E0,0E0,0E0,0E0,1.6477585E-2,7.631302E-3,9.118366E-2,2.7414095E-1,1.468817E-1,7.88641E-2,0E0,0E0,0E0,0E0,0E0,0E0,0E0,0E0,0E0,0E0,0E0,0E0,0E0,0E0,0E0],"parents":[2147483647,0,0,1,1,2,2,3,3,4,4,5,5,6,6,9,9,10,10,11,11,12,12,13,13,15,15,16,16,17,17,18,18,19,19,26,26,27,27,28,28,29,29,30,30,31,31],"right_children":[2,4,6,8,10,12,14,-1,-1,16,18,20,22,24,-1,26,28,30,32,34,-1,-1,-1,-1,-1,-1,36,38,40,42,44,46,-1,-1,-1,-1,-1,-1,-1,-1,-1,-1,-1,-1,-1,-1,-1],"split_conditions":[9.277121E-1,-5.379456E-1,3.0940301E0,-9.6523684E-1,-7.345437E-2,1.9247371E0,2.1645026E0,-2.8265819E-2,-1.8858984E-2,-2.8441173E-1,3.1957948E-1,1.4314376E0,2.4367092E0,2.031469E0,8.953877E-3,-3.903445E-1,-1.987137E-1,1.1029322E-1,5.22036E-1,1.1069549E0,4.1063253E-2,5.4159813E-2,6.854959E-2,9.796907E-2,1.5098996E-1,-1.3346853E-2,-3.3236483E-1,-2.3660393E-1,-1.395352E-1,3.3795831E-3,1.9085081E-1,1.5256728E0,1.6326424E-2,2.5321193E-2,3.2636464E-2,-1.12130875E-2,-9.808329E-3,-8.697159E-3,-7.40849E-3,-6.124892E-3,-4.529007E-3,-2.4391788E-3,-3.0217913E-4,2.1233503E-3,4.427422E-3,1.0030895E-2,4.026131E-3],"split_indices":[59,59,59,36,59,59,1,0,0,59,59,59,59,7,0,59,59,59,59,59,0,0,0,0,0,0,59,59,59,59,59,48,0,0,0,0,0,0,0,0,0,0,0,0,0,0,0],"split_type":[0,0,0,0,0,0,0,0,0,0,0,0,0,0,0,0,0,0,0,0,0,0,0,0,0,0,0,0,0,0,0,0,0,0,0,0,0,0,0,0,0,0,0,0,0,0,0],"sum_hessian":[2.158E3,1.736E3,4.22E2,5.58E2,1.178E3,3.91E2,3.1E1,4.78E2,8E1,7.55E2,4.23E2,2.42E2,1.49E2,3E1,1E0,3.91E2,3.64E2,3.57E2,6.6E1,1.12E2,1.3E2,8.7E1,6.2E1,2E1,1E1,1.38E2,2.53E2,1.83E2,1.81E2,2.25E2,1.32E2,4.5E1,2.1E1,2.8E1,8.4E1,1.27E2,1.26E2,1.09E2,7.4E1,1.08E2,7.3E1,8.9E1,1.36E2,9.7E1,3.5E1,4.1E1,4E0],"tree_param":{"num_deleted":"0","num_feature":"60","num_nodes":"47","size_leaf_vector":"1"}},{"base_weights":[-9.868913E-3,-3.937097E-1,1.6600997E0,-8.653736E-1,-1.7838997E-1,1.3383572E0,2.8379781E0,-2.7362946E-2,-1.825928E-2,-3.0654767E-1,6.0210653E-2,1.0942227E0,1.6648065E0,7.097505E-2,3.959105E0,-3.7596124E-1,-2.2831014E-1,8.921321E-3,3.4334832E-1,8.476484E-1,3.5660174E-2,4.682635E-2,5.6936678E-2,1.2317028E-1,8.819569E-3,-1.33508565E-2,-3.4441808E-1,-2.6574782E-1,-1.8204193E-1,-5.8955546E-2,6.9963545E-2,2.5951043E-1,4.59124E-1,7.139639E-3,2.5635935E-2,-1.0960581E-2,-9.540789E-3,-8.436418E-3,-7.1478044E-3,-6.0092076E-3,-4.483659E-3,-2.784825E-3,-1.165119E-3,1.4273104E-3,3.6027574E-3,8.128564E-3,8.423567E-4,1.5448438E-2,9.549327E-3],"categories":[],"categories_nodes":[],"categories_segments":[],"categories_sizes":[],"default_left":[0,0,0,0,0,0,0,0,0,0,0,0,0,0,0,0,0,0,0,0,0,0,0,0,0,0,0,0,0,0,0,0,0,0,0,0,0,0,0,0,0,0,0,0,0,0,0,0,0],"id":5,"left_children":[1,3,5,7,9,11,13,-1,-1,15,17,19,21,-1,23,25,27,29,31,33,-1,-1,-1,-1,-1,-1,35,37,39,41,43,45,47,-1,-1,-1,-1,-1,-1,-1,-1,-1,-1,-1,-1,-1,-1,-1,-1],"loss_changes":[1.3890641E3,1.7879181E2,1.4968628E2,6.0664673E0,3.7049026E1,2.3681519E1,3.6155945E1,0E0,0E0,4.193596E0,6.15424E0,3.324173E0,3.078308E-1,0E0,1.1685791E1,7.5302124E-1,5.977249E-1,1.4957325E0,5.117674E-1,2.7423859E-2,0E0,0E0,0E0,0E0,0E0,0E0,4.403305E-2,1.9723892E-2,7.124567E-2,1.12921715E-1,2.0750445E-1,9.8311186E-2,4.0465355E-2,0E0,0E0,0E0,0E0,0E0,0E0,0E0,0E0,0E0,0E0,0E0,0E0,0E0,0E0,0E0,0E0],"parents":[2147483647,0,0,1,1,2,2,3,3,4,4,5,5,6,6,9,9,10,10,11,11,12,12,14,14,15,15,16,16,17,17,18,18,19,19,26,26,27,27,28,28,29,29,30,30,31,31,32,32],"right_children":[2,4,6,8,10,12,14,-1,-1,16,18,20,22,-1,24,26,28,30,32,34,-1,-1,-1,-1,-1,-1,36,38,40,42,44,46,48,-1,-1,-1,-1,-1,-1,-1,-1,-1,-1,-1,-1,-1,-1,-1,-1],"split_conditions":[7.8712225E-1,-5.6203115E-1,2.5083482E0,-9.566997E-1,-7.923054E-2,1.6854075E0,3.9404387E0,-2.7362946E-2,-1.825928E-2,-2.8746328E-1,2.6323456E-1,1.238935E0,2.1804507E0,7.097505E-2,2.1645026E0,-3.9917222E-1,-1.987137E-1,6.622722E-2,4.82838E-1,2.1786076E-1,3.5660174E-2,4.682635E-2,5.6936678E-2,1.2317028E-1,8.819569E-3,-1.33508565E-2,-3.3236483E-1,-2.3144533E-1,-1.395352E-1,-1.790869E-2,1.6939905E-1,1.4549056E0,2.2942667E0,7.139639E-3,2.5635935E-2,-1.0960581E-2,-9.540789E-3,-8.436418E-3,-7.1478044E-3,-6.0092076E-3,-4.483659E-3,-2.784825E-3,-1.165119E-3,1.4273104E-3,3.6027574E-3,8.128564E-3,8.423567E-4,1.5448438E-2,9.549327E-3],"split_indices":[59,59,59,28,59,59,56,0,0,59,59,59,59,0,1,59,59,59,59,50,0,0,0,0,0,0,59,59,59,59,59,49,4,0,0,0,0,0,0,0,0,0,0,0,0,0,0,0,0],"split_type":[0,0,0,0,0,0,0,0,0,0,0,0,0,0,0,0,0,0,0,0,0,0,0,0,0,0,0,0,0,0,0,0,0,0,0,0,0,0,0,0,0,0,0,0,0,0,0,0,0],"sum_hessian":[2.165E3,1.761E3,4.04E2,5.51E2,1.21E3,3.19E2,8.5E1,4.64E2,8.7E1,7.87E2,4.23E2,1.85E2,1.34E2,6.2E1,2.3E1,4.15E2,3.72E2,3.59E2,6.4E1,5.4E1,1.31E2,9.8E1,3.6E1,2.2E1,1E0,1.26E2,2.89E2,2.03E2,1.69E2,1.7E2,1.89E2,3.9E1,2.5E1,1E0,5.3E1,1.54E2,1.35E2,1.24E2,7.9E1,1.05E2,6.4E1,6.2E1,1.08E2,1.32E2,5.7E1,3.7E1,2E0,1.6E1,9E0],"tree_param":{"num_deleted":"0","num_feature":"60","num_nodes":"49","size_leaf_vector":"1"}},{"base_weights":[1.968273E-3,-3.7724784E-1,1.6271755E0,-8.400398E-1,-1.5921378E-1,1.4269649E0,3.3747337E0,-2.650113E-2,-1.7565811E-2,-2.8940016E-1,7.6547876E-2,1.1358627E0,1.7865263E0,3.4446232E0,8.687276E-3,-3.4850493E-1,-2.0095477E-1,1.4562949E-2,3.8803548E-1,9.720698E-1,3.821917E-2,4.6607E-2,6.0705405E-2,7.5150095E-2,1.1562679E-1,-4.0549877E-1,-3.119006E-1,-2.3117232E-1,-1.5101954E-1,-4.4441726E-2,7.906769E-2,3.0347064E-1,5.114731E-1,2.5097802E-2,3.142327E-2,-1.3625653E-2,-1.13819325E-2,-1.0169911E-2,-8.824934E-3,-7.489094E-3,-6.2502506E-3,-5.0858865E-3,-3.7172977E-3,-2.152444E-3,-5.998883E-4,1.7938436E-3,4.1918377E-3,9.5324E-3,3.8570452E-3,1.616532E-2,8.498174E-3],"categories":[],"categories_nodes":[],"categories_segments":[],"categories_sizes":[],"default_left":[0,0,0,0,0,0,0,0,0,0,0,0,0,0,0,0,0,0,0,0,0,0,0,0,0,0,0,0,0,0,0,0,0,0,0,0,0,0,0,0,0,0,0,0,0,0,0,0,0,0,0],"id":6,"left_children":[1,3,5,7,9,11,13,-1,-1,15,17,19,21,23,-1,25,27,29,31,33,-1,-1,-1,-1,-1,35,37,39,41,43,45,47,49,-1,-1,-1,-1,-1,-1,-1,-1,-1,-1,-1,-1,-1,-1,-1,-1,-1,-1],"loss_changes":[1.3225876E3,1.7543993E2,1.3723535E2,5.6255493E0,3.636261E1,3.6279663E1,7.8429565E0,0E0,0E0,3.918583E0,8.14213E0,3.3989868E0,5.80011E0,5.73999E0,0E0,8.2484436E-1,4.2983627E-1,1.3470608E0,5.754757E-1,1.24420166E-1,0E0,0E0,0E0,0E0,0E0,5.008316E-2,3.580475E-2,2.8083801E-2,3.8707733E-2,1.2205601E-1,1.892227E-1,6.9012165E-2,1.6004086E-2,0E0,0E0,0E0,0E0,0E0,0E0,0E0,0E0,0E0,0E0,0E0,0E0,0E0,0E0,0E0,0E0,0E0,0E0],"parents":[2147483647,0,0,1,1,2,2,3,3,4,4,5,5,6,6,9,9,10,10,11,11,12,12,13,13,15,15,16,16,17,17,18,18,19,19,25,25,26,26,27,27,28,28,29,29,30,30,31,31,32,32],"right_children":[2,4,6,8,10,12,14,-1,-1,16,18,20,22,24,-1,26,28,30,32,34,-1,-1,-1,-1,-1,36,38,40,42,44,46,48,50,-1,-1,-1,-1,-1,-1,-1,-1,-1,-1,-1,-1,-1,-1,-1,-1,-1,-1],"split_conditions":[9.277121E-1,-5.379456E-1,2.8742812E0,-9.5604587E-1,-6.0594223E-2,1.7994415E0,2.1645026E0,-2.650113E-2,-1.7565811E-2,-2.6468554E-1,3.1957948E-1,1.4314376E0,2.1804507E0,3.9404387E0,8.687276E-3,-3.6665857E-1,-1.6489223E-1,8.3773695E-2,5.22036E-1,1.2137959E0,3.821917E-2,4.6607E-2,6.0705405E-2,7.5150095E-2,1.1562679E-1,-4.3833393E-1,-3.2073984E-1,-2.0812269E-1,-1.1087233E-1,1.15170805E-2,1.9085081E-1,1.6027247E0,2.2942667E0,2.5097802E-2,3.142327E-2,-1.3625653E-2,-1.13819325E-2,-1.0169911E-2,-8.824934E-3,-7.489094E-3,-6.2502506E-3,-5.0858865E-3,-3.7172977E-3,-2.152444E-3,-5.998883E-4,1.7938436E-3,4.1918377E-3,9.5324E-3,3.8570452E-3,1.616532E-2,8.498174E-3],"split_indices":[59,59,59,30,59,59,1,0,0,59,59,59,59,56,0,59,59,59,59,59,0,0,0,0,0,59,59,59,59,59,59,50,4,0,0,0,0,0,0,0,0,0,0,0,0,0,0,0,0,0,0],"split_type":[0,0,0,0,0,0,0,0,0,0,0,0,0,0,0,0,0,0,0,0,0,0,0,0,0,0,0,0,0,0,0,0,0,0,0,0,0,0,0,0,0,0,0,0,0,0,0,0,0,0,0],"sum_hessian":[2.144E3,1.739E3,4.05E2,5.56E2,1.183E3,3.65E2,4E1,4.73E2,8.3E1,7.62E2,4.21E2,2.04E2,1.61E2,3.9E1,1E0,4.55E2,3.07E2,3.52E2,6.9E1,9.7E1,1.07E2,8.5E1,7.6E1,1.4E1,2.5E1,1.74E2,2.81E2,1.89E2,1.18E2,1.84E2,1.68E2,4.3E1,2.6E1,3.9E1,5.8E1,5.5E1,1.19E2,1.04E2,1.77E2,9.9E1,9E1,6.7E1,5.1E1,8.6E1,9.8E1,1.29E2,3.9E1,3.9E1,4E0,2.2E1,4E0],"tree_param":{"num_deleted":"0","num_feature":"60","num_nodes":"51","size_leaf_vector":"1"}},{"base_weights":[5.19521E-3,-3.6033082E-1,1.5668156E0,-8.1791854E-1,-1.5819398E-1,1.2361591E0,2.5564146E0,-2.5768131E-2,-1.7305076E-2,-2.8829342E-1,6.278035E-2,1.0182086E0,4.6054013E-2,6.54344E-2,3.5838947E0,-3.6151603E-1,-2.2154292E-1,1.3502849E-2,3.5975388E-1,7.763948E-1,3.3227604E-2,1.1113295E-1,8.556967E-3,-1.28704E-2,-3.3645648E-1,-2.610071E-1,-1.7666487E-1,-5.317827E-2,7.186391E-2,2.960292E-1,4.7917557E-1,2.355236E-2,4.872481E-3,-1.0530144E-2,-9.022224E-3,-8.143428E-3,-6.9059734E-3,-5.7620313E-3,-4.171923E-3,-2.776933E-3,-1.0567099E-3,1.2906232E-3,3.4132248E-3,9.288222E-3,3.7644762E-3,1.563296E-2,8.625538E-3],"categories":[],"categories_nodes":[],"categories_segments":[],"categories_sizes":[],"default_left":[0,0,0,0,0,0,0,0,0,0,0,0,0,0,0,0,0,0,0,0,0,0,0,0,0,0,0,0,0,0,0,0,0,0,0,0,0,0,0,0,0,0,0,0,0,0,0],"id":7,"left_children":[1,3,5,7,9,11,13,-1,-1,15,17,19,-1,-1,21,23,25,27,29,31,-1,-1,-1,-1,33,35,37,39,41,43,45,-1,-1,-1,-1,-1,-1,-1,-1,-1,-1,-1,-1,-1,-1,-1,-1],"loss_changes":[1.2489325E3,1.6386485E2,1.3263513E2,4.874237E0,3.5407677E1,1.8832489E1,3.1897766E1,0E0,0E0,3.70784E0,6.682932E0,3.1168518E0,0E0,0E0,9.281311E0,4.7810745E-1,6.764889E-1,1.533213E0,3.5280704E-1,1.5507126E-1,0E0,0E0,0E0,0E0,3.6289215E-2,6.667137E-3,8.5647106E-2,1.2685752E-1,2.4895811E-1,6.535649E-2,1.8907547E-2,0E0,0E0,0E0,0E0,0E0,0E0,0E0,0E0,0E0,0E0,0E0,0E0,0E0,0E0,0E0,0E0],"parents":[2147483647,0,0,1,1,2,2,3,3,4,4,5,5,6,6,9,9,10,10,11,11,14,14,15,15,16,16,17,17,18,18,19,19,24,24,25,25,26,26,27,27,28,28,29,29,30,30],"right_children":[2,4,6,8,10,12,14,-1,-1,16,18,20,-1,-1,22,24,26,28,30,32,-1,-1,-1,-1,34,36,38,40,42,44,46,-1,-1,-1,-1,-1,-1,-1,-1,-1,-1,-1,-1,-1,-1,-1,-1],"split_conditions":[7.8712225E-1,-5.6203115E-1,2.4367092E0,-9.665447E-1,-7.923054E-2,1.6376723E0,3.9404387E0,-2.5768131E-2,-1.7305076E-2,-2.991246E-1,3.1957948E-1,1.2137959E0,4.6054013E-2,6.54344E-2,2.1645026E0,-4.161738E-1,-2.0812269E-1,6.622722E-2,5.22036E-1,2.0522852E0,3.3227604E-2,1.1113295E-1,8.556967E-3,-1.28704E-2,-3.3236483E-1,-2.3660393E-1,-1.395352E-1,-2.3539547E-2,1.6256937E-1,1.4549056E0,2.2942667E0,2.355236E-2,4.872481E-3,-1.0530144E-2,-9.022224E-3,-8.143428E-3,-6.9059734E-3,-5.7620313E-3,-4.171923E-3,-2.776933E-3,-1.0567099E-3,1.2906232E-3,3.4132248E-3,9.288222E-3,3.7644762E-3,1.563296E-2,8.625538E-3],"split_indices":[59,59,59,32,59,59,59,0,0,59,59,59,0,0,1,59,59,59,59,42,0,0,0,0,59,59,59,59,59,50,4,0,0,0,0,0,0,0,0,0,0,0,0,0,0,0,0],"split_type":[0,0,0,0,0,0,0,0,0,0,0,0,0,0,0,0,0,0,0,0,0,0,0,0,0,0,0,0,0,0,0,0,0,0,0,0,0,0,0,0,0,0,0,0,0,0,0],"sum_hessian":[2.186E3,1.772E3,4.14E2,5.42E2,1.23E3,3.12E2,1.02E2,4.61E2,8.1E1,7.74E2,4.56E2,1.83E2,1.29E2,7.7E1,2.5E1,3.67E2,4.07E2,3.92E2,6.4E1,5.2E1,1.31E2,2.4E1,1E0,9.5E1,2.72E2,2.14E2,1.93E2,1.83E2,2.09E2,4.4E1,2E1,5.1E1,1E0,1.87E2,8.5E1,1.54E2,6E1,1.34E2,5.9E1,5.6E1,1.27E2,1.25E2,8.4E1,4E1,4E0,1.5E1,5E0],"tree_param":{"num_deleted":"0","num_feature":"60","num_nodes":"47","size_leaf_vector":"1"}},{"base_weights":[2.6292405E-3,-3.6000976E-1,1.5249974E0,-7.897394E-1,-1.5462717E-1,1.3385922E0,3.4786236E0,-2.4964714E-2,-5.519959E-1,-2.7545866E-1,6.058543E-2,1.0595127E0,1.7455741E0,8.898504E-2,1.3389437E-1,-1.8014576E-2,-1.4488394E-2,-3.3527225E-1,-2.0204851E-1,1.1341336E-2,3.3867365E-1,8.148043E-1,1.1647694E0,4.560996E-2,6.0840223E-2,-3.7916434E-1,-8.908873E-3,-2.280731E-1,-1.5491572E-1,-3.936349E-2,7.545288E-2,2.739425E-1,1.39244525E-2,2.4656206E-2,4.7993935E-3,3.1208625E-2,3.7728056E-2,-1.264533E-2,-1.0675171E-2,-7.554219E-3,-6.2691E-3,-5.03499E-3,-3.7802334E-3,-1.9695996E-3,-1.9505968E-4,1.7780749E-3,3.85954E-3,8.442468E-3,2.3401552E-3],"categories":[],"categories_nodes":[],"categories_segments":[],"categories_sizes":[],"default_left":[0,0,0,0,0,0,0,0,0,0,0,0,0,0,0,0,0,0,0,0,0,0,0,0,0,0,0,0,0,0,0,0,0,0,0,0,0,0,0,0,0,0,0,0,0,0,0,0,0],"id":8,"left_children":[1,3,5,7,9,11,13,-1,15,17,19,21,23,-1,-1,-1,-1,25,27,29,31,33,35,-1,-1,37,-1,39,41,43,45,47,-1,-1,-1,-1,-1,-1,-1,-1,-1,-1,-1,-1,-1,-1,-1,-1,-1],"loss_changes":[1.1736979E3,1.5141852E2,1.4428735E2,5.1376038E0,3.0259872E1,4.0743164E1,4.4198914E0,0E0,1.2931824E-3,3.2034988E0,5.7340302E0,4.8463287E0,6.5227356E0,0E0,0E0,0E0,0E0,5.751343E-1,3.7803555E-1,1.1634932E0,3.8454294E-1,1.971817E-1,4.828949E-1,0E0,0E0,3.471756E-2,0E0,4.4859886E-2,2.4781466E-2,1.723578E-1,1.284048E-1,4.24757E-2,0E0,0E0,0E0,0E0,0E0,0E0,0E0,0E0,0E0,0E0,0E0,0E0,0E0,0E0,0E0,0E0,0E0],"parents":[2147483647,0,0,1,1,2,2,3,3,4,4,5,5,6,6,8,8,9,9,10,10,11,11,12,12,17,17,18,18,19,19,20,20,21,21,22,22,25,25,27,27,28,28,29,29,30,30,31,31],"right_children":[2,4,6,8,10,12,14,-1,16,18,20,22,24,-1,-1,-1,-1,26,28,30,32,34,36,-1,-1,38,-1,40,42,44,46,48,-1,-1,-1,-1,-1,-1,-1,-1,-1,-1,-1,-1,-1,-1,-1,-1,-1],"split_conditions":[7.8712225E-1,-5.379456E-1,3.0940301E0,-9.43549E-1,-7.345437E-2,1.8334446E0,3.0940301E0,-2.4964714E-2,-6.21028E-1,-2.7463946E-1,2.6323456E-1,1.2953526E0,2.2942667E0,8.898504E-2,1.3389437E-1,-1.8014576E-2,-1.4488394E-2,-3.6095506E-1,-1.7074105E-1,1.0117486E-1,5.22036E-1,2.1804507E0,1.5256728E0,4.560996E-2,6.0840223E-2,-4.3833393E-1,-8.908873E-3,-2.2766721E-1,-1.1087233E-1,2.0526452E-2,1.9085081E-1,1.238935E0,1.39244525E-2,2.4656206E-2,4.7993935E-3,3.1208625E-2,3.7728056E-2,-1.264533E-2,-1.0675171E-2,-7.554219E-3,-6.2691E-3,-5.03499E-3,-3.7802334E-3,-1.9695996E-3,-1.9505968E-4,1.7780749E-3,3.85954E-3,8.442468E-3,2.3401552E-3],"split_indices":[59,59,59,36,59,59,30,0,59,59,59,59,59,0,0,0,0,59,59,59,59,42,59,0,0,59,0,59,59,59,59,52,0,0,0,0,0,0,0,0,0,0,0,0,0,0,0,0,0],"split_type":[0,0,0,0,0,0,0,0,0,0,0,0,0,0,0,0,0,0,0,0,0,0,0,0,0,0,0,0,0,0,0,0,0,0,0,0,0,0,0,0,0,0,0,0,0,0,0,0,0],"sum_hessian":[2.124E3,1.716E3,4.08E2,5.54E2,1.162E3,3.74E2,3.4E1,4.68E2,8.6E1,7.44E2,4.18E2,2.24E2,1.5E2,2.5E1,9E0,4.6E1,4E1,4.08E2,3.36E2,3.56E2,6.2E1,7E1,1.54E2,8.7E1,6.3E1,1.86E2,2.22E2,2.14E2,1.22E2,1.99E2,1.57E2,4.3E1,1.9E1,6.9E1,1E0,7.1E1,8.3E1,6E1,1.26E2,9E1,1.24E2,8.1E1,4.1E1,1.1E2,8.9E1,1.22E2,3.5E1,4.1E1,2E0],"tree_param":{"num_deleted":"0","num_feature":"60","num_nodes":"49","size_leaf_vector":"1"}},{"base_weights":[6.282145E-3,-3.517218E-1,1.4719266E0,-7.655238E-1,-1.4922336E-1,1.1980598E0,2.536829E0,-2.4223424E-2,-1.6065817E-2,-2.6664838E-1,6.676609E-2,9.551299E-1,1.5010039E0,6.2780835E-2,3.2665145E0,-3.1663382E-1,-1.7998232E-1,1.4149155E-2,3.2125747E-1,7.522376E-1,3.0710625E-2,4.0022522E-2,4.796604E-2,1.0415814E-1,7.8117154E-3,-3.7132856E-1,-2.8476703E-1,-2.0399216E-1,-1.3209133E-1,-3.9291747E-2,6.502217E-2,2.4704757E-1,3.9038393E-1,7.751374E-1,1.2746139E-1,-1.2272553E-2,-1.0453818E-2,-9.223491E-3,-7.975727E-3,-6.181161E-3,-1.8730287E-3,-4.3950444E-3,-3.1779716E-3,-1.9229496E-3,-4.471009E-4,1.7710887E-3,6.6237617E-3,4.1457205E-3,7.926378E-3,1.4264415E-2,7.526887E-3,2.3470545E-2,6.4329403E-3,4.5374976E-3,1.1982644E-3],"categories":[],"categories_nodes":[],"categories_segments":[],"categories_sizes":[],"default_left":[0,0,0,0,0,0,0,0,0,0,0,0,0,0,0,0,0,0,0,0,0,0,0,0,0,0,0,0,0,0,0,0,0,0,0,0,0,0,0,0,0,0,0,0,0,0,0,0,0,0,0,0,0,0,0],"id":9,"left_children":[1,3,5,7,9,11,13,-1,-1,15,17,19,21,-1,23,25,27,29,31,33,-1,-1,-1,-1,-1,35,37,39,41,43,45,47,49,51,53,-1,-1,-1,-1,-1,-1,-1,-1,-1,-1,-1,-1,-1,-1,-1,-1,-1,-1,-1,-1],"loss_changes":[1.1092225E3,1.4225223E2,1.1799188E2,4.947998E0,2.898185E1,2.2999603E1,2.038678E1,0E0,0E0,3.1487274E0,5.391849E0,1.83107E0,2.519226E-1,0E0,1.7621796E1,7.099571E-1,2.8696442E-1,9.1331923E-1,2.5751734E-1,6.308708E-1,0E0,0E0,0E0,0E0,0E0,3.3683777E-3,4.6937943E-2,3.9283276E-2,1.9914508E-2,9.826344E-2,1.4734143E-1,3.075552E-2,2.8428125E-1,3.0441284E-2,2.0462275E-4,0E0,0E0,0E0,0E0,0E0,0E0,0E0,0E0,0E0,0E0,0E0,0E0,0E0,0E0,0E0,0E0,0E0,0E0,0E0,0E0],"parents":[2147483647,0,0,1,1,2,2,3,3,4,4,5,5,6,6,9,9,10,10,11,11,12,12,14,14,15,15,16,16,17,17,18,18,19,19,25,25,26,26,27,27,28,28,29,29,30,30,31,31,32,32,33,33,34,34],"right_children":[2,4,6,8,10,12,14,-1,-1,16,18,20,22,-1,24,26,28,30,32,34,-1,-1,-1,-1,-1,36,38,40,42,44,46,48,50,52,54,-1,-1,-1,-1,-1,-1,-1,-1,-1,-1,-1,-1,-1,-1,-1,-1,-1,-1,-1,-1],"split_conditions":[7.8712225E-1,-5.449569E-1,2.5568826E0,-9.5604587E-1,-6.0594223E-2,1.6376723E0,3.9404387E0,-2.4223424E-2,-1.6065817E-2,-2.5189805E-1,2.6323456E-1,1.1557072E0,1.9247371E0,6.2780835E-2,2.1645026E0,-3.6996442E-1,-1.5272231E-1,7.523659E-2,4.3862668E-1,2.0118155E0,3.0710625E-2,4.0022522E-2,4.796604E-2,1.0415814E-1,7.8117154E-3,-4.4047728E-1,-3.1859648E-1,-5.1802818E-2,-7.345437E-2,1.15170805E-2,2.7024588E-1,2.3998457E-1,9.3828356E-1,2.129228E0,3.9928335E-1,-1.2272553E-2,-1.0453818E-2,-9.223491E-3,-7.975727E-3,-6.181161E-3,-1.8730287E-3,-4.3950444E-3,-3.1779716E-3,-1.9229496E-3,-4.471009E-4,1.7710887E-3,6.6237617E-3,4.1457205E-3,7.926378E-3,1.4264415E-2,7.526887E-3,2.3470545E-2,6.4329403E-3,4.5374976E-3,1.1982644E-3],"split_indices":[57,57,57,30,57,57,57,0,0,57,57,57,57,0,1,57,57,57,57,41,0,0,0,0,0,57,57,35,37,57,2,54,2,28,2,0,0,0,0,0,0,0,0,0,0,0,0,0,0,0,0,0,0,0,0],"split_type":[0,0,0,0,0,0,0,0,0,0,0,0,0,0,0,0,0,0,0,0,0,0,0,0,0,0,0,0,0,0,0,0,0,0,0,0,0,0,0,0,0,0,0,0,0,0,0,0,0,0,0,0,0,0,0],"sum_hessian":[2.112E3,1.698E3,4.14E2,5.57E2,1.141E3,3.31E2,8.3E1,4.69E2,8.8E1,7.39E2,4.02E2,1.86E2,1.45E2,5.4E1,2.9E1,4.67E2,2.72E2,3.34E2,6.8E1,5E1,1.36E2,5.9E1,8.6E1,2.7E1,2E0,1.68E2,2.99E2,1.79E2,9.3E1,1.63E2,1.71E2,3.5E1,3.3E1,4.8E1,2E0,5.7E1,1.11E2,1.29E2,1.7E2,1.76E2,3E0,5.7E1,3.6E1,8E1,8.3E1,1.66E2,5E0,6E0,2.9E1,1.9E1,1.4E1,4.7E1,1E0,1E0,1E0],"tree_param":{"num_deleted":"0","num_feature":"60","num_nodes":"55","size_leaf_vector":"1"}},{"base_weights":[-4.4697365E-3,-3.4762543E-1,1.442178E0,-7.4595517E-1,-1.4798385E-1,1.2363691E0,3.1166797E0,-2.3489961E-2,-1.570902E-2,-2.603321E-1,5.1561117E-2,9.7613394E-1,1.6070714E0,2.6342115E0,1.3480951E-1,-3.3117592E-1,-2.0598327E-1,5.9176153E-3,3.4324783E-1,7.561636E-1,1.0801457E0,4.1335844E-2,5.462277E-2,8.097988E-2,6.3030208E-3,-1.1434964E-2,-9.191482E-3,-2.402773E-1,-1.6274974E-1,-5.006782E-2,6.1870176E-2,2.7820745E-1,1.3952981E-2,1.6646255E-2,2.3715843E-2,2.8983073E-2,3.4610845E-2,-7.5394E-3,-6.388453E-3,-5.4074815E-3,-3.941207E-3,-2.0971568E-3,-6.600627E-4,1.280368E-3,3.5054188E-3,8.623628E-3,2.1428142E-3],"categories":[],"categories_nodes":[],"categories_segments":[],"categories_sizes":[],"default_left":[0,0,0,0,0,0,0,0,0,0,0,0,0,0,0,0,0,0,0,0,0,0,0,0,0,0,0,0,0,0,0,0,0,0,0,0,0,0,0,0,0,0,0,0,0,0,0],"id":10,"left_children":[1,3,5,7,9,11,13,-1,-1,15,17,19,21,23,-1,25,27,29,31,33,35,-1,-1,-1,-1,-1,-1,37,39,41,43,45,-1,-1,-1,-1,-1,-1,-1,-1,-1,-1,-1,-1,-1,-1,-1],"loss_changes":[1.0563983E3,1.3666951E2,1.3675458E2,4.3171997E0,2.5727478E1,3.36427E1,1.739392E1,0E0,0E0,2.7578888E0,5.5098004E0,4.148102E0,4.7891846E0,4.957733E0,0E0,2.761116E-1,5.806446E-1,1.1276753E0,3.1442118E-1,6.631088E-2,1.01638794E-1,0E0,0E0,0E0,0E0,0E0,0E0,1.6153336E-2,7.95455E-2,9.867716E-2,1.8492734E-1,5.4038525E-2,0E0,0E0,0E0,0E0,0E0,0E0,0E0,0E0,0E0,0E0,0E0,0E0,0E0,0E0,0E0],"parents":[2147483647,0,0,1,1,2,2,3,3,4,4,5,5,6,6,9,9,10,10,11,11,12,12,13,13,15,15,16,16,17,17,18,18,19,19,20,20,27,27,28,28,29,29,30,30,31,31],"right_children":[2,4,6,8,10,12,14,-1,-1,16,18,20,22,24,-1,26,28,30,32,34,36,-1,-1,-1,-1,-1,-1,38,40,42,44,46,-1,-1,-1,-1,-1,-1,-1,-1,-1,-1,-1,-1,-1,-1,-1],"split_conditions":[7.8712225E-1,-5.379456E-1,2.8742812E0,-7.904623E-1,-7.923054E-2,1.7994415E0,4.329876E0,-2.3489961E-2,-1.570902E-2,-3.084246E-1,3.1957948E-1,1.2953526E0,2.1804507E0,3.9404387E0,1.3480951E-1,-4.0618354E-1,-2.109926E-1,6.622722E-2,5.22036E-1,9.277121E-1,1.4885818E0,4.1335844E-2,5.462277E-2,8.097988E-2,6.3030208E-3,-1.1434964E-2,-9.191482E-3,-2.4481408E-1,-1.5272231E-1,1.15170805E-2,1.734678E-1,1.6376723E0,1.3952981E-2,1.6646255E-2,2.3715843E-2,2.8983073E-2,3.4610845E-2,-7.5394E-3,-6.388453E-3,-5.4074815E-3,-3.941207E-3,-2.0971568E-3,-6.600627E-4,1.280368E-3,3.5054188E-3,8.623628E-3,2.1428142E-3],"split_indices":[59,59,59,58,59,59,34,0,0,59,59,59,59,21,0,59,59,59,59,55,59,0,0,0,0,0,0,59,59,59,59,51,0,0,0,0,0,0,0,0,0,0,0,0,0,0,0],"split_type":[0,0,0,0,0,0,0,0,0,0,0,0,0,0,0,0,0,0,0,0,0,0,0,0,0,0,0,0,0,0,0,0,0,0,0,0,0,0,0,0,0,0,0,0,0,0,0],"sum_hessian":[2.126E3,1.719E3,4.07E2,5.73E2,1.146E3,3.64E2,4.3E1,4.89E2,8.4E1,7.33E2,4.13E2,2.16E2,1.48E2,3.4E1,9E0,3.16E2,4.17E2,3.58E2,5.5E1,7.2E1,1.44E2,7.5E1,7.3E1,3.3E1,1E0,1E2,2.16E2,2.3E2,1.87E2,1.79E2,1.79E2,3.8E1,1.7E1,1.3E1,5.9E1,6.2E1,8.2E1,1.58E2,7.2E1,1.17E2,7E1,1.04E2,7.5E1,1.34E2,4.5E1,3.6E1,2E0],"tree_param":{"num_deleted":"0","num_feature":"60","num_nodes":"47","size_leaf_vector":"1"}},{"base_weights":[9.548318E-3,-3.2845485E-1,1.3935009E0,-7.2792643E-1,-1.5170956E-1,1.1439415E0,2.4330735E0,-2.2827541E-2,-1.5885968E-2,-2.5396022E-1,5.5485196E-2,9.4527483E-1,1.458232E0,6.0267583E-2,3.164189E0,-3.1756893E-1,-1.8940334E-1,8.1882E-3,2.732025E-1,7.21389E-1,1.0113044E0,4.0050056E-2,4.82768E-2,9.798155E-2,6.2084757E-3,-1.14163235E-2,-2.9025558E-1,-2.1897481E-1,-1.4560083E-1,-4.027076E-2,5.6303844E-2,1.9124015E-1,3.788431E-1,2.184628E-2,5.603276E-3,2.8102519E-2,3.3324838E-2,-9.2207305E-3,-7.982977E-3,-7.094297E-3,-5.904596E-3,-4.7947713E-3,-3.5200599E-3,-1.6960216E-3,-1.542964E-4,5.700424E-4,2.156913E-3,4.0213116E-3,6.856569E-3,1.3041038E-2,8.518652E-3],"categories":[],"categories_nodes":[],"categories_segments":[],"categories_sizes":[],"default_left":[0,0,0,0,0,0,0,0,0,0,0,0,0,0,0,0,0,0,0,0,0,0,0,0,0,0,0,0,0,0,0,0,0,0,0,0,0,0,0,0,0,0,0,0,0,0,0,0,0,0,0],"id":11,"left_children":[1,3,5,7,9,11,13,-1,-1,15,17,19,21,-1,23,25,27,29,31,33,35,-1,-1,-1,-1,-1,37,39,41,43,45,47,49,-1,-1,-1,-1,-1,-1,-1,-1,-1,-1,-1,-1,-1,-1,-1,-1,-1,-1],"loss_changes":[1.0080566E3,1.22176956E2,1.0695776E2,3.0726318E0,2.5479425E1,2.0038147E1,1.8761963E1,0E0,0E0,3.2454834E0,4.0961185E0,2.4192657E0,2.892151E-1,0E0,7.758606E0,5.844536E-1,4.8883057E-1,7.6704335E-1,5.423074E-1,5.3592682E-2,1.6143799E-1,0E0,0E0,0E0,0E0,0E0,3.636551E-2,4.574108E-2,4.7588825E-2,9.340075E-2,9.460884E-2,5.8997035E-2,3.557253E-2,0E0,0E0,0E0,0E0,0E0,0E0,0E0,0E0,0E0,0E0,0E0,0E0,0E0,0E0,0E0,0E0,0E0,0E0],"parents":[2147483647,0,0,1,1,2,2,3,3,4,4,5,5,6,6,9,9,10,10,11,11,12,12,14,14,15,15,16,16,17,17,18,18,19,19,20,20,26,26,27,27,28,28,29,29,30,30,31,31,32,32],"right_children":[2,4,6,8,10,12,14,-1,-1,16,18,20,22,-1,24,26,28,30,32,34,36,-1,-1,-1,-1,-1,38,40,42,44,46,48,50,-1,-1,-1,-1,-1,-1,-1,-1,-1,-1,-1,-1,-1,-1,-1,-1,-1,-1],"split_conditions":[7.8712225E-1,-5.727116E-1,2.5568826E0,-9.5837086E-1,-6.0594223E-2,1.7662013E0,3.9404387E0,-2.2827541E-2,-1.5885968E-2,-2.908418E-1,2.3998457E-1,1.238935E0,2.129228E0,6.0267583E-2,2.0564992E0,-4.0618354E-1,-1.9177504E-1,7.523659E-2,4.3862668E-1,2.129228E0,1.5256728E0,4.0050056E-2,4.82768E-2,9.798155E-2,6.2084757E-3,-1.14163235E-2,-3.3236483E-1,-2.3660393E-1,-1.2700202E-1,2.6956528E-2,1.18721336E-1,2.2942667E0,2.2942667E0,2.184628E-2,5.603276E-3,2.8102519E-2,3.3324838E-2,-9.2207305E-3,-7.982977E-3,-7.094297E-3,-5.904596E-3,-4.7947713E-3,-3.5200599E-3,-1.6960216E-3,-1.542964E-4,5.700424E-4,2.156913E-3,4.0213116E-3,6.856569E-3,1.3041038E-2,8.518652E-3],"split_indices":[59,59,58,39,59,59,58,0,0,59,59,59,59,0,0,59,59,59,59,31,59,0,0,0,0,0,59,59,59,59,59,0,4,0,0,0,0,0,0,0,0,0,0,0,0,0,0,0,0,0,0],"split_type":[0,0,0,0,0,0,0,0,0,0,0,0,0,0,0,0,0,0,0,0,0,0,0,0,0,0,0,0,0,0,0,0,0,0,0,0,0,0,0,0,0,0,0,0,0,0,0,0,0,0,0],"sum_hessian":[2.153E3,1.731E3,4.22E2,5.3E2,1.201E3,3.42E2,8E1,4.52E2,7.8E1,8.04E2,3.97E2,2.12E2,1.3E2,5.3E1,2.7E1,4.03E2,4.01E2,3.27E2,7E1,5.1E1,1.61E2,7.7E1,5.3E1,2.6E1,1E0,1.18E2,2.85E2,2.37E2,1.64E2,1.63E2,1.64E2,4.1E1,2.9E1,5E1,1E0,9.8E1,6.3E1,1.6E2,1.25E2,1.27E2,1.1E2,1.06E2,5.8E1,1.11E2,5.2E1,4.9E1,1.15E2,1.8E1,2.3E1,1.6E1,1.3E1],"tree_param":{"num_deleted":"0","num_feature":"60","num_nodes":"51","size_leaf_vector":"1"}},{"base_weights":[3.5169835E-3,-3.1560636E-1,1.3478348E0,-6.959063E-1,-1.3609266E-1,1.0827886E0,2.458059E0,-2.2076678E-2,-4.876487E-1,-2.4627644E-1,5.678893E-2,8.6751723E-1,1.3503797E0,5.9535623E-2,1.0204564E-1,-1.6401248E-2,-1.2982804E-2,-3.020845E-1,-1.8738945E-1,3.4006664E-3,2.7792838E-1,6.784248E-1,2.8634645E-2,3.790504E-2,4.6388824E-2,-1.0719832E-2,-2.7848694E-1,-2.1505447E-1,-1.4932422E-1,-4.219255E-2,5.2211147E-2,2.2874989E-1,4.2386216E-1,6.9222254E-1,5.151851E-3,-8.896839E-3,-7.6225623E-3,-6.813672E-3,-5.636689E-3,-4.896532E-3,-3.6256656E-3,-5.087899E-4,-1.8213454E-3,5.6263286E-4,2.045641E-3,4.121404E-3,7.7474373E-3,1.4197799E-2,6.8917163E-3,2.097151E-2,4.238267E-3],"categories":[],"categories_nodes":[],"categories_segments":[],"categories_sizes":[],"default_left":[0,0,0,0,0,0,0,0,0,0,0,0,0,0,0,0,0,0,0,0,0,0,0,0,0,0,0,0,0,0,0,0,0,0,0,0,0,0,0,0,0,0,0,0,0,0,0,0,0,0,0],"id":12,"left_children":[1,3,5,7,9,11,13,-1,15,17,19,21,23,-1,-1,-1,-1,25,27,29,31,33,-1,-1,-1,-1,35,37,39,41,43,45,47,49,-1,-1,-1,-1,-1,-1,-1,-1,-1,-1,-1,-1,-1,-1,-1,-1,-1],"loss_changes":[9.2578534E2,1.1896649E2,1.19162415E2,4.295807E0,2.5219355E1,1.8183685E1,2.8544128E1,0E0,6.4884186E-2,2.4246063E0,5.099356E0,2.4606628E0,5.6533813E-1,0E0,0E0,0E0,0E0,4.036789E-1,3.5752487E-1,7.788769E-1,5.0589323E-1,3.2157707E-1,0E0,0E0,0E0,0E0,4.5934677E-2,2.6823997E-2,4.31633E-2,8.354929E-2,8.9057446E-2,1.3971162E-1,8.308101E-2,1.307106E-1,0E0,0E0,0E0,0E0,0E0,0E0,0E0,0E0,0E0,0E0,0E0,0E0,0E0,0E0,0E0,0E0,0E0],"parents":[2147483647,0,0,1,1,2,2,3,3,4,4,5,5,6,6,8,8,9,9,10,10,11,11,12,12,17,17,18,18,19,19,20,20,21,21,26,26,27,27,28,28,29,29,30,30,31,31,32,32,33,33],"right_children":[2,4,6,8,10,12,14,-1,16,18,20,22,24,-1,-1,-1,-1,26,28,30,32,34,-1,-1,-1,-1,36,38,40,42,44,46,48,50,-1,-1,-1,-1,-1,-1,-1,-1,-1,-1,-1,-1,-1,-1,-1,-1,-1],"split_conditions":[7.8712225E-1,-5.437581E-1,2.5568826E0,-9.1252476E-1,-7.923054E-2,1.6376723E0,3.9404387E0,-2.2076678E-2,-9.070029E-1,-2.8753594E-1,2.3998457E-1,1.238935E0,2.1804507E0,5.9535623E-2,1.0204564E-1,-1.6401248E-2,-1.2982804E-2,-4.0048003E-1,-1.987137E-1,7.523659E-2,5.22036E-1,2.0118155E0,2.8634645E-2,3.790504E-2,4.6388824E-2,-1.0719832E-2,-3.336363E-1,-2.2766721E-1,-1.395352E-1,5.3003784E-2,1.2504242E-1,2.6323456E-1,9.3828356E-1,2.129228E0,5.151851E-3,-8.896839E-3,-7.6225623E-3,-6.813672E-3,-5.636689E-3,-4.896532E-3,-3.6256656E-3,-5.087899E-4,-1.8213454E-3,5.6263286E-4,2.045641E-3,4.121404E-3,7.7474373E-3,1.4197799E-2,6.8917163E-3,2.097151E-2,4.238267E-3],"split_indices":[58,58,58,46,58,58,57,0,2,58,58,58,58,0,0,0,0,58,58,58,58,42,0,0,0,0,58,58,58,5,58,53,2,30,0,0,0,0,0,0,0,0,0,0,0,0,0,0,0,0,0],"split_type":[0,0,0,0,0,0,0,0,0,0,0,0,0,0,0,0,0,0,0,0,0,0,0,0,0,0,0,0,0,0,0,0,0,0,0,0,0,0,0,0,0,0,0,0,0,0,0,0,0,0,0],"sum_hessian":[2.156E3,1.743E3,4.13E2,5.58E2,1.185E3,3.35E2,7.8E1,4.66E2,9.2E1,7.54E2,4.31E2,1.88E2,1.47E2,5.4E1,2.4E1,4E1,5.2E1,3.85E2,3.69E2,3.48E2,8.3E1,6.2E1,1.26E2,1.07E2,4E1,1.11E2,2.74E2,2.11E2,1.58E2,1.8E2,1.68E2,6.4E1,1.9E1,6E1,2E0,1.51E2,1.23E2,1.41E2,7E1,1.03E2,5.5E1,7.7E1,1.03E2,5.5E1,1.13E2,1.7E1,4.7E1,1.4E1,5E0,5.9E1,1E0],"tree_param":{"num_deleted":"0","num_feature":"60","num_nodes":"51","size_leaf_vector":"1"}},{"base_weights":[8.231205E-3,-3.0609408E-1,1.3223183E0,-6.818109E-1,-1.3620013E-1,1.1593906E0,3.0581224E0,-2.1431824E-2,-1.4009116E-2,-2.3874874E-1,5.1764004E-2,8.8433814E-1,1.502854E0,2.516259E0,1.2483464E-1,-2.9489323E-1,-1.7436783E-1,3.0517261E-3,2.706133E-1,7.235515E-1,2.9790893E-2,4.0058803E-2,5.3466246E-2,7.8140505E-2,4.584664E-3,-1.036143E-2,-2.6958764E-1,-2.0184849E-1,-1.3308275E-1,-4.3427557E-2,4.845732E-2,2.1808736E-1,4.1947734E-1,5.729907E-1,2.3179328E-2,-8.551856E-3,-7.5366274E-3,-6.6026584E-3,-5.6917192E-3,-4.4121533E-3,-3.1077713E-3,-1.8604193E-3,-5.7401997E-4,8.400576E-4,2.4637613E-3,4.925915E-3,7.586495E-3,1.3539923E-2,7.2006467E-3,1.7596828E-2,3.5060337E-3],"categories":[],"categories_nodes":[],"categories_segments":[],"categories_sizes":[],"default_left":[0,0,0,0,0,0,0,0,0,0,0,0,0,0,0,0,0,0,0,0,0,0,0,0,0,0,0,0,0,0,0,0,0,0,0,0,0,0,0,0,0,0,0,0,0,0,0,0,0,0,0],"id":13,"left_children":[1,3,5,7,9,11,13,-1,-1,15,17,19,21,23,-1,25,27,29,31,33,-1,-1,-1,-1,-1,-1,35,37,39,41,43,45,47,49,-1,-1,-1,-1,-1,-1,-1,-1,-1,-1,-1,-1,-1,-1,-1,-1,-1],"loss_changes":[8.880509E2,1.1065567E2,1.138208E2,3.4465027E0,2.3065811E1,3.4664246E1,1.044873E1,0E0,0E0,2.7463036E0,4.508628E0,3.0213776E0,5.48407E0,5.0355988E0,0E0,4.332695E-1,3.849764E-1,7.3441994E-1,5.105972E-1,2.225151E-1,0E0,0E0,0E0,0E0,0E0,0E0,7.6828003E-3,6.0129166E-3,4.5820713E-2,7.647663E-2,1.1891046E-1,6.911135E-2,2.8038025E-4,9.238148E-2,0E0,0E0,0E0,0E0,0E0,0E0,0E0,0E0,0E0,0E0,0E0,0E0,0E0,0E0,0E0,0E0,0E0],"parents":[2147483647,0,0,1,1,2,2,3,3,4,4,5,5,6,6,9,9,10,10,11,11,12,12,13,13,15,15,16,16,17,17,18,18,19,19,26,26,27,27,28,28,29,29,30,30,31,31,32,32,33,33],"right_children":[2,4,6,8,10,12,14,-1,-1,16,18,20,22,24,-1,26,28,30,32,34,-1,-1,-1,-1,-1,-1,36,38,40,42,44,46,48,50,-1,-1,-1,-1,-1,-1,-1,-1,-1,-1,-1,-1,-1,-1,-1,-1,-1],"split_conditions":[7.8712225E-1,-5.6203115E-1,3.0940301E0,-9.566997E-1,-7.345437E-2,1.7994415E0,4.329876E0,-2.1431824E-2,-1.4009116E-2,-2.8441173E-1,2.3998457E-1,1.350317E0,2.4367092E0,1.8661399E0,1.2483464E-1,-3.9477652E-1,-1.877426E-1,6.622722E-2,5.22036E-1,1.0665945E0,2.9790893E-2,4.0058803E-2,5.3466246E-2,7.8140505E-2,4.584664E-3,-1.036143E-2,-3.3236483E-1,-2.5189805E-1,-1.2700202E-1,1.15170805E-2,1.5573968E-1,3.9525092E-1,9.507804E-1,2.0118155E0,2.3179328E-2,-8.551856E-3,-7.5366274E-3,-6.6026584E-3,-5.6917192E-3,-4.4121533E-3,-3.1077713E-3,-1.8604193E-3,-5.7401997E-4,8.400576E-4,2.4637613E-3,4.925915E-3,7.586495E-3,1.3539923E-2,7.2006467E-3,1.7596828E-2,3.5060337E-3],"split_indices":[59,59,59,28,59,59,34,0,0,59,59,59,59,2,0,59,59,59,59,59,0,0,0,0,0,0,59,59,59,59,59,58,4,42,0,0,0,0,0,0,0,0,0,0,0,0,0,0,0,0,0],"split_type":[0,0,0,0,0,0,0,0,0,0,0,0,0,0,0,0,0,0,0,0,0,0,0,0,0,0,0,0,0,0,0,0,0,0,0,0,0,0,0,0,0,0,0,0,0,0,0,0,0,0,0],"sum_hessian":[2.148E3,1.734E3,4.14E2,5.39E2,1.195E3,3.8E2,3.4E1,4.66E2,7.3E1,7.73E2,4.22E2,2.13E2,1.67E2,2.5E1,9E0,4.11E2,3.62E2,3.46E2,7.6E1,8.9E1,1.24E2,1.08E2,5.9E1,2.4E1,1E0,1.33E2,2.78E2,2.15E2,1.47E2,1.71E2,1.75E2,5.8E1,1.8E1,2.5E1,6.4E1,1.43E2,1.35E2,7.9E1,1.36E2,9.7E1,5E1,9.6E1,7.5E1,1.1E2,6.5E1,2.5E1,3.3E1,1.4E1,4E0,2.4E1,1E0],"tree_param":{"num_deleted":"0","num_feature":"60","num_nodes":"51","size_leaf_vector":"1"}},{"base_weights":[-3.3068747E-4,-2.9404193E-1,1.2653387E0,-6.5728563E-1,-1.2614246E-1,1.0996951E0,2.9660766E0,-2.0816917E-2,-4.5055804E-1,-2.269699E-1,5.159846E-2,8.992227E-1,1.4853046E0,2.4680986E0,1.2391339E-1,-1.4995281E-2,-1.2002277E-2,-2.7763575E-1,-1.6595356E-1,4.0136115E-3,2.6567882E-1,7.512991E-1,3.0887488E-2,4.0327758E-2,5.307415E-2,2.5514462E0,4.5158938E-3,-9.436738E-3,-2.5133517E-1,-1.871278E-1,-1.2309156E-1,-3.7473075E-2,5.290215E-2,1.972167E-1,3.686443E-1,1.9426579E-2,2.4618158E-2,2.2013228E-2,7.784406E-2,-2.0969387E-3,-7.5537693E-3,-6.1823307E-3,-5.0825877E-3,-3.7276924E-3,1.8046839E-4,-1.655784E-3,-1.3828694E-4,1.0290204E-3,2.2703279E-3,3.8974185E-3,6.6127796E-3,1.2750814E-2,7.459535E-3],"categories":[],"categories_nodes":[],"categories_segments":[],"categories_sizes":[],"default_left":[0,0,0,0,0,0,0,0,0,0,0,0,0,0,0,0,0,0,0,0,0,0,0,0,0,0,0,0,0,0,0,0,0,0,0,0,0,0,0,0,0,0,0,0,0,0,0,0,0,0,0,0,0],"id":14,"left_children":[1,3,5,7,9,11,13,-1,15,17,19,21,23,25,-1,-1,-1,27,29,31,33,35,-1,-1,-1,37,-1,-1,39,41,43,45,47,49,51,-1,-1,-1,-1,-1,-1,-1,-1,-1,-1,-1,-1,-1,-1,-1,-1,-1,-1],"loss_changes":[7.9143756E2,1.05305084E2,1.0970648E2,3.8198395E0,2.1212444E1,2.7034973E1,1.0099701E1,0E0,1.1505127E-2,2.2879677E0,4.369149E0,3.9316254E0,2.585968E0,4.83136E0,0E0,0E0,0E0,3.200531E-1,2.900772E-1,7.1591717E-1,4.771371E-1,3.1707E-1,0E0,0E0,0E0,1.449585E-1,0E0,0E0,2.7198792E-3,4.1931152E-2,1.834333E-2,1.1097106E-1,6.603661E-2,4.7903895E-2,9.728336E-2,0E0,0E0,0E0,0E0,0E0,0E0,0E0,0E0,0E0,0E0,0E0,0E0,0E0,0E0,0E0,0E0,0E0,0E0],"parents":[2147483647,0,0,1,1,2,2,3,3,4,4,5,5,6,6,8,8,9,9,10,10,11,11,12,12,13,13,17,17,18,18,19,19,20,20,21,21,25,25,28,28,29,29,30,30,31,31,32,32,33,33,34,34],"right_children":[2,4,6,8,10,12,14,-1,16,18,20,22,24,26,-1,-1,-1,28,30,32,34,36,-1,-1,-1,38,-1,-1,40,42,44,46,48,50,52,-1,-1,-1,-1,-1,-1,-1,-1,-1,-1,-1,-1,-1,-1,-1,-1,-1,-1],"split_conditions":[7.8712225E-1,-5.111718E-1,3.0940301E0,-9.120888E-1,-7.345437E-2,1.9247371E0,2.4367092E0,-2.0816917E-2,-6.300737E-1,-2.7463946E-1,2.3998457E-1,1.4314376E0,2.5568826E0,1.8589106E0,1.2391339E-1,-1.4995281E-2,-1.2002277E-2,-3.6665857E-1,-1.6489223E-1,8.3773695E-2,4.82838E-1,1.2137959E0,3.0887488E-2,4.0327758E-2,5.307415E-2,1.5562611E0,4.5158938E-3,-9.436738E-3,-6.0805887E-1,-2.2410706E-1,-1.7426807E-3,2.6956528E-2,1.5573968E-1,2.6323456E-1,1.6376723E0,1.9426579E-2,2.4618158E-2,2.2013228E-2,7.784406E-2,-2.0969387E-3,-7.5537693E-3,-6.1823307E-3,-5.0825877E-3,-3.7276924E-3,1.8046839E-4,-1.655784E-3,-1.3828694E-4,1.0290204E-3,2.2703279E-3,3.8974185E-3,6.6127796E-3,1.2750814E-2,7.459535E-3],"split_indices":[59,59,59,47,59,59,13,0,58,59,59,59,59,0,0,0,0,59,59,59,59,59,0,0,0,24,0,0,7,59,58,59,59,54,19,0,0,0,0,0,0,0,0,0,0,0,0,0,0,0,0,0,0],"split_type":[0,0,0,0,0,0,0,0,0,0,0,0,0,0,0,0,0,0,0,0,0,0,0,0,0,0,0,0,0,0,0,0,0,0,0,0,0,0,0,0,0,0,0,0,0,0,0,0,0,0,0,0,0],"sum_hessian":[2.127E3,1.727E3,4E2,5.45E2,1.182E3,3.66E2,3.4E1,4.61E2,8.4E1,7.54E2,4.28E2,2.43E2,1.23E2,2.6E1,8E0,3.8E1,4.6E1,4.1E2,3.44E2,3.51E2,7.7E1,1.17E2,1.26E2,8.6E1,3.7E1,2.5E1,1E0,1.66E2,2.44E2,2.28E2,1.16E2,1.9E2,1.61E2,4.8E1,2.9E1,5.1E1,6.6E1,1E0,2.4E1,1E0,2.43E2,1.05E2,1.23E2,1.15E2,1E0,1.23E2,6.7E1,9E1,7.1E1,1.4E1,3.4E1,1.8E1,1.1E1],"tree_param":{"num_deleted":"0","num_feature":"60","num_nodes":"53","size_leaf_vector":"1"}},{"base_weights":[1.0372014E-2,-2.9201716E-1,1.2135309E0,-6.560957E-1,-1.3791533E-1,9.67638E-1,2.2060735E0,-2.0213848E-2,-1.4668511E-2,-2.3116294E-1,4.1183505E-2,7.8888816E-1,1.2163604E0,5.292607E-2,2.942635E0,-2.8232E-1,-1.6761243E-1,2.4519055E-4,2.3664609E-1,5.7957363E-1,2.582572E-2,3.349698E-2,4.201062E-2,3.132715E0,5.6303516E-3,-1.0725061E-2,-2.596192E-1,-5.933337E-3,-1.3914986E-1,-3.8636312E-2,5.0947115E-2,1.3551402E-1,2.82282E-1,6.035423E-1,1.2308725E-1,7.74723E-2,1.2022605E-1,-8.590655E-3,-7.2751297E-3,-4.4319313E-3,-2.4297189E-3,-1.8345823E-3,-4.8555442E-4,1.2166125E-3,2.3686613E-3,3.00348E-3,5.2517895E-3,1.0990945E-2,6.730614E-3,1.864605E-2,6.967409E-3,5.2611995E-4,4.5727435E-3],"categories":[],"categories_nodes":[],"categories_segments":[],"categories_sizes":[],"default_left":[0,0,0,0,0,0,0,0,0,0,0,0,0,0,0,0,0,0,0,0,0,0,0,0,0,0,0,0,0,0,0,0,0,0,0,0,0,0,0,0,0,0,0,0,0,0,0,0,0,0,0,0,0],"id":15,"left_children":[1,3,5,7,9,11,13,-1,-1,15,17,19,21,-1,23,25,27,29,31,33,-1,-1,-1,35,-1,-1,37,-1,39,41,43,45,47,49,51,-1,-1,-1,-1,-1,-1,-1,-1,-1,-1,-1,-1,-1,-1,-1,-1,-1,-1],"loss_changes":[7.7347656E2,9.523218E1,1.0207855E2,1.164505E0,1.996666E1,1.4334381E1,2.2147675E1,0E0,0E0,2.5080109E0,3.2807245E0,2.5591125E0,1.0437317E0,0E0,1.5121918E1,6.47892E-1,2.7556038E-1,6.7223316E-1,2.8942966E-1,5.274868E-1,0E0,0E0,0E0,3.1305847E0,0E0,0E0,8.476257E-2,0E0,8.036399E-2,9.657565E-2,3.988087E-2,1.60698E-2,1.5160108E-1,2.0304298E-1,9.713165E-3,0E0,0E0,0E0,0E0,0E0,0E0,0E0,0E0,0E0,0E0,0E0,0E0,0E0,0E0,0E0,0E0,0E0,0E0],"parents":[2147483647,0,0,1,1,2,2,3,3,4,4,5,5,6,6,9,9,10,10,11,11,12,12,14,14,15,15,16,16,17,17,18,18,19,19,23,23,26,26,28,28,29,29,30,30,31,31,32,32,33,33,34,34],"right_children":[2,4,6,8,10,12,14,-1,-1,16,18,20,22,-1,24,26,28,30,32,34,-1,-1,-1,36,-1,-1,38,-1,40,42,44,46,48,50,52,-1,-1,-1,-1,-1,-1,-1,-1,-1,-1,-1,-1,-1,-1,-1,-1,-1,-1],"split_conditions":[6.59211E-1,-6.073323E-1,2.5568826E0,-9.565908E-1,-7.923054E-2,1.6376723E0,3.9404387E0,-2.0213848E-2,-1.4668511E-2,-2.849203E-1,2.3998457E-1,1.1557072E0,2.129228E0,5.292607E-2,2.1645026E0,-4.4047728E-1,-2.0597933E-1,8.3773695E-2,3.1957948E-1,1.8334446E0,2.582572E-2,3.349698E-2,4.201062E-2,2.1804507E0,5.6303516E-3,-1.0725061E-2,-3.643699E-1,-5.933337E-3,5.979714E-2,3.3795831E-3,1.827678E-1,3.1957948E-1,2.5083482E0,2.129228E0,7.8712225E-1,7.74723E-2,1.2022605E-1,-8.590655E-3,-7.2751297E-3,-4.4319313E-3,-2.4297189E-3,-1.8345823E-3,-4.8555442E-4,1.2166125E-3,2.3686613E-3,3.00348E-3,5.2517895E-3,1.0990945E-2,6.730614E-3,1.864605E-2,6.967409E-3,5.2611995E-4,4.5727435E-3],"split_indices":[57,57,57,41,57,57,56,0,0,57,57,57,57,0,1,57,57,57,50,41,0,0,0,10,0,0,57,0,4,57,57,57,4,30,17,0,0,0,0,0,0,0,0,0,0,0,0,0,0,0,0,0,0],"split_type":[0,0,0,0,0,0,0,0,0,0,0,0,0,0,0,0,0,0,0,0,0,0,0,0,0,0,0,0,0,0,0,0,0,0,0,0,0,0,0,0,0,0,0,0,0,0,0,0,0,0,0,0,0],"sum_hessian":[2.124E3,1.698E3,4.26E2,5.04E2,1.194E3,3.43E2,8.3E1,4.53E2,5.1E1,7.85E2,4.09E2,2.02E2,1.41E2,5.4E1,2.9E1,4.33E2,3.52E2,3.39E2,7E1,5.4E1,1.48E2,9.6E1,4.5E1,2.7E1,2E0,9.7E1,3.36E2,1.68E2,1.84E2,1.92E2,1.47E2,2.3E1,4.7E1,5.1E1,3E0,1.9E1,8E0,1.25E2,2.11E2,1.59E2,2.5E1,9.5E1,9.7E1,1.09E2,3.8E1,1.4E1,9E0,1.7E1,3E1,4.8E1,3E0,1E0,2E0],"tree_param":{"num_deleted":"0","num_feature":"60","num_nodes":"53","size_leaf_vector":"1"}},{"base_weights":[-2.7162249E-3,-2.8029338E-1,1.2048944E0,-6.152917E-1,-1.2346506E-1,1.0221738E0,2.6471376E0,-1.9576881E-2,-4.299351E-1,-2.1474385E-1,5.043658E-2,8.2679397E-1,1.340445E0,2.3003662E0,1.1630151E-1,-1.4228675E-2,-1.1293002E-2,-2.6190424E-1,-1.5702704E-1,5.382793E-3,2.5722745E-1,7.053392E-1,2.9175907E-2,3.441508E-2,4.5314472E-2,7.073337E-2,4.3637003E-3,-2.9483393E-1,-2.3401417E-1,-1.7933533E-1,-1.1832933E-1,-2.5185416E-2,5.9738223E-2,2.1210326E-1,3.5456583E-1,5.7646865E-1,2.3119343E-2,-9.895991E-3,-8.37468E-3,-1.9563576E-3,-7.0340554E-3,-5.95327E-3,-4.902916E-3,-3.5807455E-3,1.8504467E-4,-1.4902095E-3,-1.11748464E-4,1.2712383E-3,2.4751574E-3,6.648618E-3,1.3460786E-3,1.1843588E-2,7.19578E-3,4.6463977E-3,1.7475905E-2],"categories":[],"categories_nodes":[],"categories_segments":[],"categories_sizes":[],"default_left":[0,0,0,0,0,0,0,0,0,0,0,0,0,0,0,0,0,0,0,0,0,0,0,0,0,0,0,0,0,0,0,0,0,0,0,0,0,0,0,0,0,0,0,0,0,0,0,0,0,0,0,0,0,0,0],"id":16,"left_children":[1,3,5,7,9,11,13,-1,15,17,19,21,23,25,-1,-1,-1,27,29,31,33,35,-1,-1,-1,-1,-1,37,39,41,43,45,47,49,51,53,-1,-1,-1,-1,-1,-1,-1,-1,-1,-1,-1,-1,-1,-1,-1,-1,-1,-1,-1],"loss_changes":[6.9588837E2,8.860687E1,9.954291E1,3.4361725E0,1.8281265E1,2.0407318E1,9.416595E0,0E0,4.2154312E-2,2.0139465E0,3.69735E0,3.1549988E0,2.5395508E0,4.1109467E0,0E0,0E0,0E0,3.112259E-1,2.7402115E-1,5.448308E-1,2.3664999E-1,5.8249664E-1,0E0,0E0,0E0,0E0,0E0,1.00746155E-2,2.272606E-3,3.29051E-2,1.7131805E-2,1.1017604E-1,4.315138E-2,7.122898E-2,2.1913052E-3,2.4773598E-2,0E0,0E0,0E0,0E0,0E0,0E0,0E0,0E0,0E0,0E0,0E0,0E0,0E0,0E0,0E0,0E0,0E0,0E0,0E0],"parents":[2147483647,0,0,1,1,2,2,3,3,4,4,5,5,6,6,8,8,9,9,10,10,11,11,12,12,13,13,17,17,18,18,19,19,20,20,21,21,27,27,28,28,29,29,30,30,31,31,32,32,33,33,34,34,35,35],"right_children":[2,4,6,8,10,12,14,-1,16,18,20,22,24,26,-1,-1,-1,28,30,32,34,36,-1,-1,-1,-1,-1,38,40,42,44,46,48,50,52,54,-1,-1,-1,-1,-1,-1,-1,-1,-1,-1,-1,-1,-1,-1,-1,-1,-1,-1,-1],"split_conditions":[7.8712225E-1,-5.111718E-1,2.8742812E0,-9.565908E-1,-6.0594223E-2,1.8334446E0,2.4367092E0,-1.9576881E-2,-6.21028E-1,-2.7463946E-1,2.6323456E-1,1.4549056E0,2.1804507E0,2.6167512E0,1.1630151E-1,-1.4228675E-2,-1.1293002E-2,-3.6095506E-1,-1.7074105E-1,1.1029322E-1,5.22036E-1,1.2137959E0,2.9175907E-2,3.441508E-2,4.5314472E-2,7.073337E-2,4.3637003E-3,-4.3833393E-1,-6.62769E-1,-2.2766721E-1,-1.7426807E-3,2.0526452E-2,1.6939905E-1,1.6027247E0,1.6376723E0,2.1786076E-1,2.3119343E-2,-9.895991E-3,-8.37468E-3,-1.9563576E-3,-7.0340554E-3,-5.95327E-3,-4.902916E-3,-3.5807455E-3,1.8504467E-4,-1.4902095E-3,-1.11748464E-4,1.2712383E-3,2.4751574E-3,6.648618E-3,1.3460786E-3,1.1843588E-2,7.19578E-3,4.6463977E-3,1.7475905E-2],"split_indices":[59,59,59,29,59,59,13,0,59,59,59,59,59,17,0,0,0,59,59,59,59,59,0,0,0,0,0,59,0,59,58,59,59,50,18,50,0,0,0,0,0,0,0,0,0,0,0,0,0,0,0,0,0,0,0],"split_type":[0,0,0,0,0,0,0,0,0,0,0,0,0,0,0,0,0,0,0,0,0,0,0,0,0,0,0,0,0,0,0,0,0,0,0,0,0,0,0,0,0,0,0,0,0,0,0,0,0,0,0,0,0,0,0],"sum_hessian":[2.074E3,1.687E3,3.87E2,5.37E2,1.15E3,3.45E2,4.2E1,4.45E2,9.2E1,7.54E2,3.96E2,2.16E2,1.29E2,3.5E1,7E0,4.6E1,4.6E1,4.13E2,3.41E2,3.26E2,7E1,1.21E2,9.5E1,6.4E1,6.5E1,3.4E1,1E0,1.85E2,2.28E2,2.14E2,1.27E2,2.09E2,1.17E2,5E1,2E1,4.4E1,7.7E1,5.1E1,1.34E2,1E0,2.27E2,9.2E1,1.22E2,1.26E2,1E0,9.7E1,1.12E2,6.8E1,4.9E1,4.7E1,3E0,1.3E1,7E0,1E0,4.3E1],"tree_param":{"num_deleted":"0","num_feature":"60","num_nodes":"55","size_leaf_vector":"1"}},{"base_weights":[5.9445775E-3,-2.6657605E-1,1.1829427E0,-5.9211016E-1,-1.0993038E-1,9.411113E-1,2.080657E0,-1.8986207E-2,-4.1385677E-1,-1.9819295E-1,7.155558E-2,7.875987E-1,3.5643682E-2,5.0183762E-2,2.7454586E0,-1.4002833E-2,-1.09140435E-2,-2.4407561E-1,-1.3204743E-1,2.2930698E-2,2.8148386E-1,1.9541647E-2,2.5416655E-2,8.490746E-2,4.298245E-3,-8.3367815E-3,-2.1784574E-1,-1.5495062E-1,-8.987262E-2,-8.334746E-3,7.2657615E-2,2.0370173E-1,3.601379E-1,-6.9295457E-3,-6.026242E-3,-4.6729725E-3,1.8226901E-4,-3.2808464E-3,-2.3529828E-3,-9.806729E-4,3.507602E-4,1.6540752E-3,3.2566716E-3,6.4714784E-3,-2.510806E-4,1.1792047E-2,6.1194226E-3],"categories":[],"categories_nodes":[],"categories_segments":[],"categories_sizes":[],"default_left":[0,0,0,0,0,0,0,0,0,0,0,0,0,0,0,0,0,0,0,0,0,0,0,0,0,0,0,0,0,0,0,0,0,0,0,0,0,0,0,0,0,0,0,0,0,0,0],"id":17,"left_children":[1,3,5,7,9,11,13,-1,15,17,19,21,-1,-1,23,-1,-1,25,27,29,31,-1,-1,-1,-1,-1,33,35,37,39,41,43,45,-1,-1,-1,-1,-1,-1,-1,-1,-1,-1,-1,-1,-1,-1],"loss_changes":[6.7390356E2,8.692983E1,8.379462E1,3.7635498E0,1.848342E1,1.0932983E1,1.791278E1,0E0,1.10897064E-1,2.3228798E0,3.8520703E0,1.0399017E0,0E0,0E0,6.213684E0,0E0,0E0,3.4482956E-1,2.9517365E-1,4.794637E-1,3.6100864E-1,0E0,0E0,0E0,0E0,0E0,1.2022972E-2,2.7985573E-2,1.706171E-2,9.305253E-2,6.886554E-2,9.862435E-2,9.466028E-2,0E0,0E0,0E0,0E0,0E0,0E0,0E0,0E0,0E0,0E0,0E0,0E0,0E0,0E0],"parents":[2147483647,0,0,1,1,2,2,3,3,4,4,5,5,6,6,8,8,9,9,10,10,11,11,14,14,17,17,18,18,19,19,20,20,26,26,27,27,28,28,29,29,30,30,31,31,32,32],"right_children":[2,4,6,8,10,12,14,-1,16,18,20,22,-1,-1,24,-1,-1,26,28,30,32,-1,-1,-1,-1,-1,34,36,38,40,42,44,46,-1,-1,-1,-1,-1,-1,-1,-1,-1,-1,-1,-1,-1,-1],"split_conditions":[9.277121E-1,-5.0208974E-1,2.5568826E0,-7.8969944E-1,-2.3539547E-2,1.7662013E0,3.9404387E0,-1.8986207E-2,-6.300737E-1,-2.5189805E-1,3.1957948E-1,1.2953526E0,3.5643682E-2,5.0183762E-2,2.4367092E0,-1.4002833E-2,-1.09140435E-2,-3.5503358E-1,-1.395352E-1,1.2504242E-1,4.82838E-1,1.9541647E-2,2.5416655E-2,8.490746E-2,4.298245E-3,-8.3367815E-3,-2.9687226E-1,-1.7426807E-3,-1.03861004E-1,3.887215E-2,1.9085081E-1,1.2137959E0,1.7250777E0,-6.9295457E-3,-6.026242E-3,-4.6729725E-3,1.8226901E-4,-3.2808464E-3,-2.3529828E-3,-9.806729E-4,3.507602E-4,1.6540752E-3,3.2566716E-3,6.4714784E-3,-2.510806E-4,1.1792047E-2,6.1194226E-3],"split_indices":[59,59,59,59,59,59,59,0,58,59,59,59,0,0,3,0,0,59,59,59,59,0,0,0,0,0,59,57,59,59,59,51,40,0,0,0,0,0,0,0,0,0,0,0,0,0,0],"split_type":[0,0,0,0,0,0,0,0,0,0,0,0,0,0,0,0,0,0,0,0,0,0,0,0,0,0,0,0,0,0,0,0,0,0,0,0,0,0,0,0,0,0,0,0,0,0,0],"sum_hessian":[2.099E3,1.705E3,3.94E2,5.53E2,1.152E3,3.12E2,8.2E1,4.48E2,1.05E2,7.75E2,3.77E2,1.95E2,1.17E2,5.3E1,2.9E1,4.7E1,5.8E1,4.56E2,3.19E2,3.07E2,7E1,6.3E1,1.32E2,2.8E1,1E0,1.95E2,2.61E2,2.05E2,1.14E2,1.89E2,1.18E2,3.7E1,3.3E1,1.4E2,1.21E2,2.04E2,1E0,3.9E1,7.5E1,8.5E1,1.04E2,8.1E1,3.7E1,3.5E1,2E0,2.6E1,7E0],"tree_param":{"num_deleted":"0","num_feature":"60","num_nodes":"47","size_leaf_vector":"1"}},{"base_weights":[2.2968482E-3,-2.644897E-1,1.1404053E0,-5.868046E-1,-1.1521286E-1,1.0054905E0,2.9258428E0,-1.8409261E-2,-1.2440212E-2,-2.0360029E-1,5.2983366E-2,8.529973E-1,1.4856856E0,3.0237536E0,4.2337715E-3,-2.537688E-1,-1.4969799E-1,1.3574956E-2,2.7332437E-1,6.9317853E-1,1.0080355E0,4.0097393E-2,4.9894378E-2,7.180758E-2,1.1168288E-1,-2.9752636E-1,-2.2915737E-1,-1.7584367E-1,-1.1576722E-1,-2.0982176E-2,6.153059E-2,3.450879E-1,2.0810431E-1,5.614859E-1,2.2677587E-2,2.6900664E-2,3.2040637E-2,-9.840552E-3,-8.2263425E-3,-7.3430515E-3,-6.376057E-3,-5.6332224E-3,-4.741433E-3,-3.732383E-3,-2.4255342E-3,-1.2737034E-3,6.0175735E-5,1.4374717E-3,2.929668E-3,1.0698897E-2,5.018033E-4,-8.708917E-4,6.4779795E-3,1.7290367E-2,3.9484967E-3],"categories":[],"categories_nodes":[],"categories_segments":[],"categories_sizes":[],"default_left":[0,0,0,0,0,0,0,0,0,0,0,0,0,0,0,0,0,0,0,0,0,0,0,0,0,0,0,0,0,0,0,0,0,0,0,0,0,0,0,0,0,0,0,0,0,0,0,0,0,0,0,0,0,0,0],"id":18,"left_children":[1,3,5,7,9,11,13,-1,-1,15,17,19,21,23,-1,25,27,29,31,33,35,-1,-1,-1,-1,37,39,41,43,45,47,49,51,53,-1,-1,-1,-1,-1,-1,-1,-1,-1,-1,-1,-1,-1,-1,-1,-1,-1,-1,-1,-1,-1],"loss_changes":[6.491632E2,8.3266106E1,9.485608E1,2.2770538E0,1.7627508E1,2.6485565E1,7.2075653E0,0E0,0E0,2.0631752E0,3.5477548E0,6.4868774E0,1.585083E-1,2.9825592E0,0E0,3.6367035E-1,3.140955E-1,5.7799983E-1,2.1837187E-1,7.8189087E-1,1.0803223E-2,0E0,0E0,0E0,0E0,1.0293007E-2,1.5704155E-2,1.5120983E-2,4.03533E-2,1.0029791E-1,6.7129016E-2,1.00153446E-1,7.124138E-2,2.4991608E-1,0E0,0E0,0E0,0E0,0E0,0E0,0E0,0E0,0E0,0E0,0E0,0E0,0E0,0E0,0E0,0E0,0E0,0E0,0E0,0E0,0E0],"parents":[2147483647,0,0,1,1,2,2,3,3,4,4,5,5,6,6,9,9,10,10,11,11,12,12,13,13,15,15,16,16,17,17,18,18,19,19,20,20,25,25,26,26,27,27,28,28,29,29,30,30,31,31,32,32,33,33],"right_children":[2,4,6,8,10,12,14,-1,-1,16,18,20,22,24,-1,26,28,30,32,34,36,-1,-1,-1,-1,38,40,42,44,46,48,50,52,54,-1,-1,-1,-1,-1,-1,-1,-1,-1,-1,-1,-1,-1,-1,-1,-1,-1,-1,-1,-1,-1],"split_conditions":[7.8712225E-1,-5.621801E-1,3.9404387E0,-9.566997E-1,-6.0594223E-2,2.1804507E0,2.1645026E0,-1.8409261E-2,-1.2440212E-2,-2.8462967E-1,3.1957948E-1,1.5256728E0,2.7321658E0,1.9437367E0,4.2337715E-3,-3.908894E-1,-1.9177504E-1,1.1029322E-1,9.507804E-1,1.2137959E0,1.7662013E0,4.0097393E-2,4.9894378E-2,7.180758E-2,1.1168288E-1,-4.593679E-1,-3.336363E-1,-2.2766721E-1,-4.0323135E-2,2.6956528E-2,1.9085081E-1,2.1804507E0,2.2942667E0,1.5562611E0,2.2677587E-2,2.6900664E-2,3.2040637E-2,-9.840552E-3,-8.2263425E-3,-7.3430515E-3,-6.376057E-3,-5.6332224E-3,-4.741433E-3,-3.732383E-3,-2.4255342E-3,-1.2737034E-3,6.0175735E-5,1.4374717E-3,2.929668E-3,1.0698897E-2,5.018033E-4,-8.708917E-4,6.4779795E-3,1.7290367E-2,3.9484967E-3],"split_indices":[58,58,58,28,58,58,1,0,0,58,58,58,58,6,0,58,58,58,4,58,58,0,0,0,0,58,58,58,38,58,58,40,0,50,0,0,0,0,0,0,0,0,0,0,0,0,0,0,0,0,0,0,0,0,0],"split_type":[0,0,0,0,0,0,0,0,0,0,0,0,0,0,0,0,0,0,0,0,0,0,0,0,0,0,0,0,0,0,0,0,0,0,0,0,0,0,0,0,0,0,0,0,0,0,0,0,0,0,0,0,0,0,0],"sum_hessian":[2.136E3,1.731E3,4.05E2,5.47E2,1.184E3,3.78E2,2.7E1,4.71E2,7.6E1,7.76E2,4.08E2,2.89E2,8.9E1,2.6E1,1E0,4E2,3.76E2,3.47E2,6.1E1,1.45E2,1.44E2,5.3E1,3.6E1,1.6E1,1E1,1.4E2,2.6E2,2.1E2,1.66E2,2.02E2,1.45E2,2.7E1,3.4E1,5E1,9.5E1,5.6E1,8.8E1,5.5E1,8.5E1,1.27E2,1.33E2,1.2E2,9E1,1.31E2,3.5E1,1.04E2,9.8E1,1.07E2,3.8E1,2.6E1,1E0,1E0,3.3E1,4.8E1,2E0],"tree_param":{"num_deleted":"0","num_feature":"60","num_nodes":"55","size_leaf_vector":"1"}},{"base_weights":[-8.704621E-3,-2.568535E-1,1.0945569E0,-5.664673E-1,-1.1452285E-1,9.490963E-1,2.4904752E0,-1.7903851E-2,-3.9119524E-1,-1.9471739E-1,5.0928243E-2,7.6179373E-1,1.2931435E0,2.1099598E0,1.0192743E-1,-1.3426349E-2,-1.0579364E-2,-2.3975083E-1,-1.4183375E-1,1.3209972E-2,2.3757553E-1,6.36504E-1,2.6543915E-2,3.4142982E-2,4.3581046E-2,1.8326968E-2,6.4285636E-2,-2.7985942E-1,-2.1763009E-1,-1.6138956E-1,-1.0329914E-1,-2.8395714E-2,4.9900986E-2,1.790414E-1,3.0852985E-1,1.3921374E-2,2.0267976E-2,-9.224045E-3,-7.7503207E-3,-6.990364E-3,-6.0142134E-3,-5.3805765E-3,-4.4136913E-3,-3.4774053E-3,-2.6325176E-3,-1.1506536E-3,-2.003364E-4,1.0934568E-3,2.7598238E-3,5.6898417E-3,-2.423679E-4,1.0957344E-2,6.449812E-3],"categories":[],"categories_nodes":[],"categories_segments":[],"categories_sizes":[],"default_left":[0,0,0,0,0,0,0,0,0,0,0,0,0,0,0,0,0,0,0,0,0,0,0,0,0,0,0,0,0,0,0,0,0,0,0,0,0,0,0,0,0,0,0,0,0,0,0,0,0,0,0,0,0],"id":19,"left_children":[1,3,5,7,9,11,13,-1,15,17,19,21,23,25,-1,-1,-1,27,29,31,33,35,-1,-1,-1,-1,-1,37,39,41,43,45,47,49,51,-1,-1,-1,-1,-1,-1,-1,-1,-1,-1,-1,-1,-1,-1,-1,-1,-1,-1],"loss_changes":[5.784899E2,7.5951614E1,7.64202E1,2.6529083E0,1.57062845E1,2.1762573E1,5.2572937E0,0E0,2.2473335E-2,1.8640766E0,2.7213466E0,2.9967804E0,1.3895264E0,7.1647644E-2,0E0,0E0,0E0,3.197155E-1,2.6139736E-1,4.9449414E-1,2.1472144E-1,4.8207855E-1,0E0,0E0,0E0,0E0,0E0,9.0761185E-3,2.7442932E-2,3.588724E-2,1.4737606E-2,3.2620966E-2,9.404272E-2,7.7046394E-2,7.0011854E-2,0E0,0E0,0E0,0E0,0E0,0E0,0E0,0E0,0E0,0E0,0E0,0E0,0E0,0E0,0E0,0E0,0E0,0E0],"parents":[2147483647,0,0,1,1,2,2,3,3,4,4,5,5,6,6,8,8,9,9,10,10,11,11,12,12,13,13,17,17,18,18,19,19,20,20,21,21,27,27,28,28,29,29,30,30,31,31,32,32,33,33,34,34],"right_children":[2,4,6,8,10,12,14,-1,16,18,20,22,24,26,-1,-1,-1,28,30,32,34,36,-1,-1,-1,-1,-1,38,40,42,44,46,48,50,52,-1,-1,-1,-1,-1,-1,-1,-1,-1,-1,-1,-1,-1,-1,-1,-1,-1,-1],"split_conditions":[7.8712225E-1,-5.379456E-1,3.0940301E0,-9.66363E-1,-5.1802818E-2,1.9247371E0,3.0940301E0,-1.7903851E-2,-6.62769E-1,-2.7463946E-1,2.6323456E-1,1.4314376E0,2.4367092E0,1.5562611E0,1.0192743E-1,-1.3426349E-2,-1.0579364E-2,-3.783199E-1,-1.6489223E-1,7.523659E-2,4.82838E-1,1.0665945E0,2.6543915E-2,3.4142982E-2,4.3581046E-2,1.8326968E-2,6.4285636E-2,-4.3833393E-1,-3.2073984E-1,-2.2766721E-1,-1.1087233E-1,3.4730744E-2,1.827678E-1,1.238935E0,1.6376723E0,1.3921374E-2,2.0267976E-2,-9.224045E-3,-7.7503207E-3,-6.990364E-3,-6.0142134E-3,-5.3805765E-3,-4.4136913E-3,-3.4774053E-3,-2.6325176E-3,-1.1506536E-3,-2.003364E-4,1.0934568E-3,2.7598238E-3,5.6898417E-3,-2.423679E-4,1.0957344E-2,6.449812E-3],"split_indices":[59,59,59,33,59,59,30,0,59,59,59,59,59,24,0,0,0,59,59,59,59,59,0,0,0,0,0,59,59,59,59,59,59,51,19,0,0,0,0,0,0,0,0,0,0,0,0,0,0,0,0,0,0],"split_type":[0,0,0,0,0,0,0,0,0,0,0,0,0,0,0,0,0,0,0,0,0,0,0,0,0,0,0,0,0,0,0,0,0,0,0,0,0,0,0,0,0,0,0,0,0,0,0,0,0,0,0,0,0],"sum_hessian":[2.111E3,1.724E3,3.87E2,5.42E2,1.182E3,3.52E2,3.5E1,4.6E2,8.2E1,7.96E2,3.86E2,2.3E2,1.22E2,2.7E1,8E0,2.9E1,5.3E1,4.28E2,3.68E2,3.22E2,6.4E1,1.17E2,1.13E2,6.6E1,5.6E1,1E0,2.6E1,1.48E2,2.8E2,2.42E2,1.26E2,1.51E2,1.71E2,3.7E1,2.7E1,2.4E1,9.3E1,5.9E1,8.9E1,1.41E2,1.39E2,1.02E2,1.4E2,6.6E1,6E1,1.03E2,4.8E1,1.31E2,4E1,3.5E1,2E0,1.5E1,1.2E1],"tree_param":{"num_deleted":"0","num_feature":"60","num_nodes":"53","size_leaf_vector":"1"}},{"base_weights":[-1.6477084E-2,-2.5716755E-1,1.029992E0,-5.5000126E-1,-1.17168926E-1,8.484756E-1,1.8375523E0,-5.739178E-1,-1.0692845E-2,-1.9281183E-1,3.2682754E-2,6.605271E-1,1.0541029E0,4.4611137E-2,7.8539714E-2,-1.7411204E-2,-1.4174694E-2,-2.4044839E-1,-1.4800657E-1,-5.044341E-3,1.6944733E-1,4.912018E-1,2.1936573E-2,2.7851354E-2,1.1478211E0,-8.4183365E-3,-2.2044778E-1,-1.7217553E-1,-1.1553402E-1,-4.0489092E-2,3.6384452E-2,9.9193044E-2,2.2413819E-1,1.5083377E-2,3.8037437E-3,9.930126E-3,3.4610227E-2,-1.6227101E-3,-6.626693E-3,-5.3744693E-3,-4.528722E-3,-3.7979297E-3,-2.7998325E-3,-1.1311834E-3,-5.401696E-3,4.399262E-4,1.5572747E-3,1.0896823E-3,3.0482924E-3,5.1417584E-3,7.7058487E-3],"categories":[],"categories_nodes":[],"categories_segments":[],"categories_sizes":[],"default_left":[0,0,0,0,0,0,0,0,0,0,0,0,0,0,0,0,0,0,0,0,0,0,0,0,0,0,0,0,0,0,0,0,0,0,0,0,0,0,0,0,0,0,0,0,0,0,0,0,0,0,0],"id":20,"left_children":[1,3,5,7,9,11,13,15,-1,17,19,21,23,-1,-1,-1,-1,25,27,29,31,33,-1,-1,35,-1,37,39,41,43,45,47,49,-1,-1,-1,-1,-1,-1,-1,-1,-1,-1,-1,-1,-1,-1,-1,-1,-1,-1],"loss_changes":[5.347439E2,7.069519E1,5.6635284E1,2.378769E0,1.325717E1,1.1902756E1,1.5802902E1,4.988098E-2,0E0,1.6228161E0,2.0286288E0,1.7116318E0,7.489166E-1,0E0,0E0,0E0,0E0,2.3937035E-1,2.963934E-1,4.5521903E-1,3.0435967E-1,1.640749E-1,0E0,0E0,1.9721985E-2,0E0,6.801605E-3,6.840229E-3,3.1179428E-2,5.8075786E-2,4.7458455E-2,2.2348464E-3,3.709984E-2,0E0,0E0,0E0,0E0,0E0,0E0,0E0,0E0,0E0,0E0,0E0,0E0,0E0,0E0,0E0,0E0,0E0,0E0],"parents":[2147483647,0,0,1,1,2,2,3,3,4,4,5,5,6,6,7,7,9,9,10,10,11,11,12,12,17,17,18,18,19,19,20,20,21,21,24,24,26,26,27,27,28,28,29,29,30,30,31,31,32,32],"right_children":[2,4,6,8,10,12,14,16,-1,18,20,22,24,-1,-1,-1,-1,26,28,30,32,34,-1,-1,36,-1,38,40,42,44,46,48,50,-1,-1,-1,-1,-1,-1,-1,-1,-1,-1,-1,-1,-1,-1,-1,-1,-1,-1],"split_conditions":[6.59211E-1,-5.379456E-1,2.5568826E0,-7.7625805E-1,-7.923054E-2,1.6027247E0,3.9404387E0,-9.615314E-1,-1.0692845E-2,-2.9687226E-1,1.9085081E-1,1.2137959E0,1.9659694E0,4.4611137E-2,7.8539714E-2,-1.7411204E-2,-1.4174694E-2,-3.9477652E-1,-1.987137E-1,6.622722E-2,3.1957948E-1,2.0882862E0,2.1936573E-2,2.7851354E-2,1.0636978E-1,-8.4183365E-3,-5.70096E-1,-2.2766721E-1,-1.395352E-1,1.5754423E0,1.2504242E-1,-3.309384E-2,4.3862668E-1,1.5083377E-2,3.8037437E-3,9.930126E-3,3.4610227E-2,-1.6227101E-3,-6.626693E-3,-5.3744693E-3,-4.528722E-3,-3.7979297E-3,-2.7998325E-3,-1.1311834E-3,-5.401696E-3,4.399262E-4,1.5572747E-3,1.0896823E-3,3.0482924E-3,5.1417584E-3,7.7058487E-3],"split_indices":[59,59,59,37,59,59,59,49,0,59,59,59,59,0,0,0,0,59,59,59,59,42,0,0,11,0,29,59,59,0,59,35,59,0,0,0,0,0,0,0,0,0,0,0,0,0,0,0,0,0,0],"split_type":[0,0,0,0,0,0,0,0,0,0,0,0,0,0,0,0,0,0,0,0,0,0,0,0,0,0,0,0,0,0,0,0,0,0,0,0,0,0,0,0,0,0,0,0,0,0,0,0,0,0,0],"sum_hessian":[2.121E3,1.725E3,3.96E2,5.57E2,1.168E3,3.25E2,7.1E1,4.94E2,6.3E1,7.76E2,3.92E2,1.72E2,1.53E2,5.1E1,2E1,4.6E2,3.4E1,3.74E2,4.02E2,3.08E2,8.4E1,5.3E1,1.19E2,7E1,8.3E1,1.2E2,2.54E2,2.28E2,1.74E2,1.66E2,1.42E2,3.8E1,4.6E1,5.1E1,2E0,1E0,8.2E1,1E0,2.53E2,1.66E2,6.2E1,1.13E2,6.1E1,1.64E2,2E0,6E1,8.2E1,2E0,3.6E1,2E1,2.6E1],"tree_param":{"num_deleted":"0","num_feature":"60","num_nodes":"51","size_leaf_vector":"1"}},{"base_weights":[-4.6359437E-5,-2.4037328E-1,1.0767674E0,-5.3402394E-1,-1.0278513E-1,9.183949E-1,2.4276886E0,-5.5551684E-1,-1.0444952E-2,-1.8020299E-1,6.2358137E-2,7.3165E-1,1.2297554E0,2.0470464E0,1.009473E-1,-1.6874494E-2,-1.3871629E-2,-2.2207236E-1,-1.2287083E-1,1.9445749E-2,2.542492E-1,6.01446E-1,2.4773804E-2,3.3049844E-2,4.2688876E-2,6.3360885E-2,1.4632576E-3,-2.5685108E-1,-1.965784E-1,-1.4173697E-1,-8.1791915E-2,-1.30054895E-2,6.955918E-2,1.8145174E-1,3.238509E-1,1.3584455E-2,1.8765358E-2,-8.769402E-3,-7.183503E-3,-6.286357E-3,-5.4371464E-3,-4.7411313E-3,-3.8281833E-3,-2.3521513E-3,-5.293662E-3,-1.0795303E-3,1.5980592E-4,1.5872341E-3,2.8775989E-3,5.796055E-3,-3.659967E-4,1.0316385E-2,5.1921257E-3],"categories":[],"categories_nodes":[],"categories_segments":[],"categories_sizes":[],"default_left":[0,0,0,0,0,0,0,0,0,0,0,0,0,0,0,0,0,0,0,0,0,0,0,0,0,0,0,0,0,0,0,0,0,0,0,0,0,0,0,0,0,0,0,0,0,0,0,0,0,0,0,0,0],"id":21,"left_children":[1,3,5,7,9,11,13,15,-1,17,19,21,23,25,-1,-1,-1,27,29,31,33,35,-1,-1,-1,-1,-1,37,39,41,43,45,47,49,51,-1,-1,-1,-1,-1,-1,-1,-1,-1,-1,-1,-1,-1,-1,-1,-1,-1,-1],"loss_changes":[5.4888794E2,7.000365E1,8.056857E1,2.015625E0,1.5123151E1,1.9334717E1,7.381714E0,6.0409546E-2,0E0,1.9050884E0,3.1076977E0,2.2000656E0,1.6249542E0,3.92247E0,0E0,0E0,0E0,3.6091042E-1,2.5345707E-1,5.0503993E-1,2.9084778E-1,6.014633E-2,0E0,0E0,0E0,0E0,0E0,4.910183E-2,1.6126633E-2,3.3503056E-2,2.14324E-2,7.980917E-2,4.847622E-2,8.4272504E-2,4.3161154E-2,0E0,0E0,0E0,0E0,0E0,0E0,0E0,0E0,0E0,0E0,0E0,0E0,0E0,0E0,0E0,0E0,0E0,0E0],"parents":[2147483647,0,0,1,1,2,2,3,3,4,4,5,5,6,6,7,7,9,9,10,10,11,11,12,12,13,13,17,17,18,18,19,19,20,20,21,21,27,27,28,28,29,29,30,30,31,31,32,32,33,33,34,34],"right_children":[2,4,6,8,10,12,14,16,-1,18,20,22,24,26,-1,-1,-1,28,30,32,34,36,-1,-1,-1,-1,-1,38,40,42,44,46,48,50,52,-1,-1,-1,-1,-1,-1,-1,-1,-1,-1,-1,-1,-1,-1,-1,-1,-1,-1],"split_conditions":[9.277121E-1,-5.379456E-1,3.0940301E0,-9.6523684E-1,-2.3539547E-2,1.9247371E0,4.329876E0,-9.615314E-1,-1.0444952E-2,-2.6079845E-1,3.1957948E-1,1.4038646E0,2.5568826E0,1.9247371E0,1.009473E-1,-1.6874494E-2,-1.3871629E-2,-3.6095506E-1,-1.395352E-1,1.2504242E-1,4.82838E-1,1.0665945E0,2.4773804E-2,3.3049844E-2,4.2688876E-2,6.3360885E-2,1.4632576E-3,-4.3833393E-1,-3.055547E-1,-2.0812269E-1,1.5562611E0,3.887215E-2,1.9085081E-1,1.4549056E0,1.5256728E0,1.3584455E-2,1.8765358E-2,-8.769402E-3,-7.183503E-3,-6.286357E-3,-5.4371464E-3,-4.7411313E-3,-3.8281833E-3,-2.3521513E-3,-5.293662E-3,-1.0795303E-3,1.5980592E-4,1.5872341E-3,2.8775989E-3,5.796055E-3,-3.659967E-4,1.0316385E-2,5.1921257E-3],"split_indices":[59,59,59,0,59,59,34,49,0,59,59,59,59,0,0,0,0,59,59,59,59,59,0,0,0,0,0,59,59,59,0,59,59,50,46,0,0,0,0,0,0,0,0,0,0,0,0,0,0,0,0,0,0],"split_type":[0,0,0,0,0,0,0,0,0,0,0,0,0,0,0,0,0,0,0,0,0,0,0,0,0,0,0,0,0,0,0,0,0,0,0,0,0,0,0,0,0,0,0,0,0,0,0,0,0,0,0,0,0],"sum_hessian":[2.119E3,1.733E3,3.86E2,5.52E2,1.181E3,3.47E2,3.9E1,4.93E2,5.9E1,8.04E2,3.77E2,2.19E2,1.28E2,3E1,9E0,4.54E2,3.9E1,4.63E2,3.41E2,3.09E2,6.8E1,9.5E1,1.24E2,8.1E1,4.7E1,2.9E1,1E0,1.92E2,2.71E2,2.32E2,1.09E2,1.88E2,1.21E2,3.5E1,3.3E1,1.6E1,7.9E1,5.8E1,1.34E2,1.4E2,1.31E2,1.03E2,1.29E2,1.07E2,2E0,8.3E1,1.05E2,7.6E1,4.5E1,3.3E1,2E0,2.8E1,5E0],"tree_param":{"num_deleted":"0","num_feature":"60","num_nodes":"53","size_leaf_vector":"1"}},{"base_weights":[4.040718E-3,-2.2886728E-1,1.0345441E0,-5.1162493E-1,-9.8041855E-2,8.8145477E-1,2.3936715E0,-5.394993E-1,-9.8702805E-3,-1.7208983E-1,5.0302316E-2,6.8783194E-1,1.1389054E0,2.48315E0,4.9221185E-1,-1.6377952E-2,-1.3211627E-2,-2.0992254E-1,-1.15867026E-1,1.4604241E-2,2.347001E-1,5.925881E-1,2.3485873E-2,2.8889531E-2,3.8544662E-2,2.0276263E0,9.7895674E-2,2.0708224E-2,1.4413091E-3,-2.3548372E-1,-5.4205656E-3,-1.3206078E-1,-8.0467954E-2,-1.3619132E-2,6.0268894E-2,1.8482707E-1,3.2801977E-1,1.4817345E-2,1.8969765E-2,1.6432483E-2,6.194734E-2,-7.8122704E-3,-6.695181E-3,-4.0238714E-3,-1.0988127E-3,-2.2790947E-3,-3.939113E-3,-9.2777156E-4,1.0955989E-4,1.3997486E-3,2.693509E-3,5.8255894E-3,2.1896309E-3,1.1343203E-2,5.9809517E-3],"categories":[],"categories_nodes":[],"categories_segments":[],"categories_sizes":[],"default_left":[0,0,0,0,0,0,0,0,0,0,0,0,0,0,0,0,0,0,0,0,0,0,0,0,0,0,0,0,0,0,0,0,0,0,0,0,0,0,0,0,0,0,0,0,0,0,0,0,0,0,0,0,0,0,0],"id":22,"left_children":[1,3,5,7,9,11,13,15,-1,17,19,21,23,25,27,-1,-1,29,31,33,35,37,-1,-1,-1,39,-1,-1,-1,41,-1,43,45,47,49,51,53,-1,-1,-1,-1,-1,-1,-1,-1,-1,-1,-1,-1,-1,-1,-1,-1,-1,-1],"loss_changes":[5.090632E2,6.3945816E1,7.924463E1,2.6068878E0,1.3014408E1,1.681308E1,5.413208E0,6.112671E-2,0E0,1.6560535E0,2.5967174E0,1.3824997E0,2.6132202E0,6.5305634E0,2.3075569E-1,0E0,0E0,3.0944443E-1,1.7281151E-1,4.2870593E-1,2.3723769E-1,1.03328705E-1,0E0,0E0,0E0,3.0355835E-1,0E0,0E0,0E0,1.7983437E-2,0E0,3.8116455E-2,1.3577461E-2,6.1687227E-2,4.682845E-2,3.1883E-2,5.994153E-2,0E0,0E0,0E0,0E0,0E0,0E0,0E0,0E0,0E0,0E0,0E0,0E0,0E0,0E0,0E0,0E0,0E0,0E0],"parents":[2147483647,0,0,1,1,2,2,3,3,4,4,5,5,6,6,7,7,9,9,10,10,11,11,12,12,13,13,14,14,17,17,18,18,19,19,20,20,21,21,25,25,29,29,31,31,32,32,33,33,34,34,35,35,36,36],"right_children":[2,4,6,8,10,12,14,16,-1,18,20,22,24,26,28,-1,-1,30,32,34,36,38,-1,-1,-1,40,-1,-1,-1,42,-1,44,46,48,50,52,54,-1,-1,-1,-1,-1,-1,-1,-1,-1,-1,-1,-1,-1,-1,-1,-1,-1,-1],"split_conditions":[9.277121E-1,-5.0208974E-1,3.0940301E0,-9.490709E-1,-2.3539547E-2,1.8334446E0,2.5568826E0,-9.615314E-1,-9.8702805E-3,-2.4481408E-1,3.1957948E-1,1.4314376E0,2.1804507E0,1.9539086E0,1.7994415E0,-1.6377952E-2,-1.3211627E-2,-3.3236483E-1,-1.395352E-1,1.18721336E-1,5.22036E-1,1.1557072E0,2.3485873E-2,2.8889531E-2,3.8544662E-2,1.6027247E0,9.7895674E-2,2.0708224E-2,1.4413091E-3,-4.161738E-1,-5.4205656E-3,-1.790869E-2,1.3697162E0,3.887215E-2,1.9085081E-1,1.6027247E0,1.8334446E0,1.4817345E-2,1.8969765E-2,1.6432483E-2,6.194734E-2,-7.8122704E-3,-6.695181E-3,-4.0238714E-3,-1.0988127E-3,-2.2790947E-3,-3.939113E-3,-9.2777156E-4,1.0955989E-4,1.3997486E-3,2.693509E-3,5.8255894E-3,2.1896309E-3,1.1343203E-2,5.9809517E-3],"split_indices":[59,59,58,10,59,59,16,49,0,59,59,59,59,8,0,0,0,59,59,59,59,59,0,0,0,19,0,0,0,59,0,40,0,59,59,50,32,0,0,0,0,0,0,0,0,0,0,0,0,0,0,0,0,0,0],"split_type":[0,0,0,0,0,0,0,0,0,0,0,0,0,0,0,0,0,0,0,0,0,0,0,0,0,0,0,0,0,0,0,0,0,0,0,0,0,0,0,0,0,0,0,0,0,0,0,0,0,0,0,0,0,0,0],"sum_hessian":[2.119E3,1.729E3,3.9E2,5.46E2,1.183E3,3.52E2,3.8E1,4.72E2,7.4E1,7.89E2,3.94E2,2.03E2,1.49E2,3.6E1,2E0,4.39E2,3.3E1,4.7E2,3.19E2,3.31E2,6.3E1,1.05E2,9.8E1,7.1E1,7.8E1,2.5E1,1.1E1,1E0,1E0,2.47E2,2.23E2,2.17E2,1.02E2,2.05E2,1.26E2,4.3E1,2E1,3.4E1,7.1E1,1E0,2.4E1,7.5E1,1.72E2,2.12E2,5E0,9.6E1,6E0,1.02E2,1.03E2,8.8E1,3.8E1,3.9E1,4E0,1.3E1,7E0],"tree_param":{"num_deleted":"0","num_feature":"60","num_nodes":"55","size_leaf_vector":"1"}},{"base_weights":[-2.3326252E-3,-2.2495443E-1,9.681044E-1,-5.072604E-1,-9.9014066E-2,7.844086E-1,1.8255173E0,-1.5856223E-2,-3.7271357E-1,-1.757859E-1,5.011145E-2,6.3950974E-1,9.9910766E-1,4.328826E-2,7.495991E-2,-1.2461547E-2,-9.7534405E-3,-2.2666453E-1,-1.3521333E-1,1.0983414E-2,2.3788156E-1,5.199621E-1,2.128655E-2,2.7617194E-2,3.4364328E-2,-8.13209E-3,-2.0753945E-1,-1.596047E-1,-1.0168562E-1,-1.9685755E-2,5.380055E-2,1.885696E-1,3.2107276E-1,1.5687643E-2,4.381334E-3,-1.4227657E-3,-6.2397057E-3,-5.011122E-3,-4.15746E-3,-3.5087983E-3,-2.5299736E-3,-1.1613116E-3,2.7442169E-5,1.2309276E-3,2.569697E-3,5.9348308E-3,2.1370796E-3,1.0384364E-2,4.546583E-3],"categories":[],"categories_nodes":[],"categories_segments":[],"categories_sizes":[],"default_left":[0,0,0,0,0,0,0,0,0,0,0,0,0,0,0,0,0,0,0,0,0,0,0,0,0,0,0,0,0,0,0,0,0,0,0,0,0,0,0,0,0,0,0,0,0,0,0,0,0],"id":23,"left_children":[1,3,5,7,9,11,13,-1,15,17,19,21,23,-1,-1,-1,-1,25,27,29,31,33,-1,-1,-1,-1,35,37,39,41,43,45,47,-1,-1,-1,-1,-1,-1,-1,-1,-1,-1,-1,-1,-1,-1,-1,-1],"loss_changes":[4.6427267E2,6.2097656E1,6.1726807E1,1.346283E0,1.3861663E1,9.689468E0,1.4421616E1,0E0,2.1347046E-2,1.6187096E0,3.0243826E0,1.3141022E0,4.628601E-1,0E0,0E0,0E0,0E0,2.4352837E-1,3.4932137E-1,4.5016184E-1,2.3072004E-1,9.943008E-3,0E0,0E0,0E0,0E0,8.25119E-3,1.7009735E-2,4.0762424E-2,7.841878E-2,5.4656327E-2,3.6963105E-2,5.3798914E-2,0E0,0E0,0E0,0E0,0E0,0E0,0E0,0E0,0E0,0E0,0E0,0E0,0E0,0E0,0E0,0E0],"parents":[2147483647,0,0,1,1,2,2,3,3,4,4,5,5,6,6,8,8,9,9,10,10,11,11,12,12,17,17,18,18,19,19,20,20,21,21,26,26,27,27,28,28,29,29,30,30,31,31,32,32],"right_children":[2,4,6,8,10,12,14,-1,16,18,20,22,24,-1,-1,-1,-1,26,28,30,32,34,-1,-1,-1,-1,36,38,40,42,44,46,48,-1,-1,-1,-1,-1,-1,-1,-1,-1,-1,-1,-1,-1,-1,-1,-1],"split_conditions":[9.277121E-1,-5.727116E-1,2.6167512E0,-9.566997E-1,-6.0594223E-2,1.7250777E0,3.9404387E0,-1.5856223E-2,-7.6412445E-1,-3.055547E-1,3.1957948E-1,1.2953526E0,2.1804507E0,4.328826E-2,7.495991E-2,-1.2461547E-2,-9.7534405E-3,-4.161738E-1,-1.987137E-1,1.1029322E-1,5.22036E-1,2.1804507E0,2.128655E-2,2.7617194E-2,3.4364328E-2,-8.13209E-3,-5.942542E-1,-2.3144533E-1,-1.5272231E-1,2.6956528E-2,1.9085081E-1,1.2137959E0,1.7250777E0,1.5687643E-2,4.381334E-3,-1.4227657E-3,-6.2397057E-3,-5.011122E-3,-4.15746E-3,-3.5087983E-3,-2.5299736E-3,-1.1613116E-3,2.7442169E-5,1.2309276E-3,2.569697E-3,5.9348308E-3,2.1370796E-3,1.0384364E-2,4.546583E-3],"split_indices":[59,59,59,40,59,59,58,0,30,59,59,59,59,0,0,0,0,59,59,59,59,43,0,0,0,0,31,59,57,59,59,51,40,0,0,0,0,0,0,0,0,0,0,0,0,0,0,0,0],"split_type":[0,0,0,0,0,0,0,0,0,0,0,0,0,0,0,0,0,0,0,0,0,0,0,0,0,0,0,0,0,0,0,0,0,0,0,0,0,0,0,0,0,0,0,0,0,0,0,0,0],"sum_hessian":[2.147E3,1.747E3,4E2,5.38E2,1.209E3,3.31E2,6.9E1,4.62E2,7.6E1,7.98E2,4.11E2,2E2,1.31E2,4.6E1,2.3E1,3.6E1,4E1,3.52E2,4.46E2,3.41E2,7E1,7.7E1,1.23E2,9E1,4.1E1,1.02E2,2.5E2,2.56E2,1.9E2,1.99E2,1.42E2,4.6E1,2.4E1,7.6E1,1E0,1E0,2.49E2,1.84E2,7.2E1,9.8E1,9.2E1,1.03E2,9.6E1,1.03E2,3.9E1,4.2E1,4E0,2E1,4E0],"tree_param":{"num_deleted":"0","num_feature":"60","num_nodes":"49","size_leaf_vector":"1"}},{"base_weights":[1.9008277E-3,-2.2367375E-1,9.3404996E-1,-4.9595556E-1,-1.03836894E-1,8.250233E-1,2.1479886E0,-1.5404346E-2,-1.1133753E-2,-1.7947221E-1,2.42527E-2,6.2912875E-1,1.0512514E0,3.5184175E-2,2.242055E0,-2.2606152E-1,-1.4435376E-1,-2.869576E-3,1.8790755E-1,4.980379E-1,6.924416E-1,2.7132828E-2,3.6435142E-2,6.828416E-2,1.9315569E-2,-8.182466E-3,-6.325532E-3,-1.6589953E-1,-1.1903204E-1,-4.3673765E-2,2.9748458E-2,1.4911649E-1,2.565417E-1,8.927546E-3,5.121806E-1,6.307154E-1,2.2905417E-2,-2.0149043E-3,-4.994438E-3,-3.593348E-3,4.1962508E-4,-1.8554361E-3,-7.360661E-4,1.8518146E-4,1.515224E-3,2.1629937E-3,4.798495E-3,8.485464E-3,4.308972E-3,1.547231E-2,4.3156133E-3,1.9113762E-2,7.742703E-3],"categories":[],"categories_nodes":[],"categories_segments":[],"categories_sizes":[],"default_left":[0,0,0,0,0,0,0,0,0,0,0,0,0,0,0,0,0,0,0,0,0,0,0,0,0,0,0,0,0,0,0,0,0,0,0,0,0,0,0,0,0,0,0,0,0,0,0,0,0,0,0,0,0],"id":24,"left_children":[1,3,5,7,9,11,13,-1,-1,15,17,19,21,-1,23,25,27,29,31,33,35,-1,-1,-1,-1,-1,-1,37,39,41,43,45,47,-1,49,51,-1,-1,-1,-1,-1,-1,-1,-1,-1,-1,-1,-1,-1,-1,-1,-1,-1],"loss_changes":[4.4030225E2,5.4961655E1,5.2227325E1,9.3592834E-1,1.13588E1,1.6001755E1,3.976593E-1,0E0,0E0,1.1732082E0,1.9358089E0,1.3482819E0,3.0482788E0,0E0,1.14212036E-1,1.6618347E-1,2.1103191E-1,5.004063E-1,1.2681365E-1,4.6028137E-2,1.10687256E-1,0E0,0E0,0E0,0E0,0E0,0E0,1.7991066E-3,2.1329165E-2,5.6568503E-2,1.01974726E-1,2.3510277E-2,2.175033E-2,0E0,9.799957E-3,2.186966E-2,0E0,0E0,0E0,0E0,0E0,0E0,0E0,0E0,0E0,0E0,0E0,0E0,0E0,0E0,0E0,0E0,0E0],"parents":[2147483647,0,0,1,1,2,2,3,3,4,4,5,5,6,6,9,9,10,10,11,11,12,12,14,14,15,15,16,16,17,17,18,18,19,19,20,20,27,27,28,28,29,29,30,30,31,31,32,32,34,34,35,35],"right_children":[2,4,6,8,10,12,14,-1,-1,16,18,20,22,-1,24,26,28,30,32,34,36,-1,-1,-1,-1,-1,-1,38,40,42,44,46,48,-1,50,52,-1,-1,-1,-1,-1,-1,-1,-1,-1,-1,-1,-1,-1,-1,-1,-1,-1],"split_conditions":[7.8712225E-1,-5.8829635E-1,3.0940301E0,-9.615314E-1,-1.03861004E-1,1.7662013E0,1.5754423E0,-1.5404346E-2,-1.1133753E-2,-3.2073984E-1,2.3998457E-1,1.264292E0,2.2414818E0,3.5184175E-2,2.5568826E0,-4.3833393E-1,-2.2766721E-1,3.887215E-2,4.82838E-1,5.22036E-1,1.5256728E0,2.7132828E-2,3.6435142E-2,6.828416E-2,1.9315569E-2,-8.182466E-3,-6.325532E-3,-5.437581E-1,-1.7426807E-3,-1.3222364E-2,1.2504242E-1,5.0061207E-2,2.1804507E0,8.927546E-3,2.1804507E0,2.1804507E0,2.2905417E-2,-2.0149043E-3,-4.994438E-3,-3.593348E-3,4.1962508E-4,-1.8554361E-3,-7.360661E-4,1.8518146E-4,1.515224E-3,2.1629937E-3,4.798495E-3,8.485464E-3,4.308972E-3,1.547231E-2,4.3156133E-3,1.9113762E-2,7.742703E-3],"split_indices":[59,59,59,37,59,59,13,0,0,59,59,59,59,0,13,59,59,59,59,52,59,0,0,0,0,0,0,22,57,59,59,31,29,0,43,47,0,0,0,0,0,0,0,0,0,0,0,0,0,0,0,0,0],"split_type":[0,0,0,0,0,0,0,0,0,0,0,0,0,0,0,0,0,0,0,0,0,0,0,0,0,0,0,0,0,0,0,0,0,0,0,0,0,0,0,0,0,0,0,0,0,0,0,0,0,0,0,0,0],"sum_hessian":[2.092E3,1.685E3,4.07E2,5.14E2,1.171E3,3.75E2,3.2E1,4.48E2,6.6E1,7.36E2,4.35E2,2.03E2,1.72E2,4E0,2.8E1,3.14E2,4.22E2,3.74E2,6.1E1,6.9E1,1.34E2,9.4E1,7.8E1,2.7E1,1E0,7.3E1,2.41E2,2.25E2,1.97E2,1.66E2,2.08E2,4.1E1,2E1,6E0,6.3E1,7.7E1,5.7E1,2E0,2.23E2,1.96E2,1E0,8.4E1,8.2E1,9.8E1,1.1E2,6E0,3.5E1,1.5E1,5E0,6.2E1,1E0,7.5E1,2E0],"tree_param":{"num_deleted":"0","num_feature":"60","num_nodes":"53","size_leaf_vector":"1"}},{"base_weights":[8.8901474E-4,-2.1749799E-1,9.155802E-1,-4.8044577E-1,-9.945086E-2,7.402973E-1,1.6731135E0,-1.4916303E-2,-1.0725284E-2,-1.6756089E-1,3.6847576E-2,5.927505E-1,9.1273797E-1,3.9989572E-2,2.1901183E0,-2.029259E-1,-1.1897437E-1,1.1415896E-2,2.1464102E-1,4.8889217E-1,1.9089967E-2,7.848676E-1,9.9494725E-1,2.4272032E0,1.01536825E-1,-7.918936E-3,-1.892204E-1,-1.4517792E-1,-1.00037016E-1,-1.6461499E-2,4.6773512E-2,2.910549E-1,1.6645643E-1,5.013361E-1,2.6848242E-3,2.490992E-2,-4.3147954E-1,8.201822E-3,2.9999483E-2,5.818635E-2,9.39849E-2,-7.289716E-4,4.547454E-3,-6.0807276E-3,-5.1360843E-3,-1.1210119E-3,-4.370541E-3,-3.3625884E-3,-2.12229E-3,-1.0507207E-3,-3.4617526E-5,1.1782162E-3,3.5850098E-3,6.160487E-3,1.0172526E-2,-1.0627074E-3,5.216165E-3,1.520729E-2,2.838237E-3,-1.6975483E-2,-2.4410964E-3],"categories":[],"categories_nodes":[],"categories_segments":[],"categories_sizes":[],"default_left":[0,0,0,0,0,0,0,0,0,0,0,0,0,0,0,0,0,0,0,0,0,0,0,0,0,0,0,0,0,0,0,0,0,0,0,0,0,0,0,0,0,0,0,0,0,0,0,0,0,0,0,0,0,0,0,0,0,0,0,0,0],"id":25,"left_children":[1,3,5,7,9,11,13,-1,-1,15,17,19,21,-1,23,25,27,29,31,33,-1,35,37,39,41,-1,43,45,47,49,51,53,55,57,-1,-1,59,-1,-1,-1,-1,-1,-1,-1,-1,-1,-1,-1,-1,-1,-1,-1,-1,-1,-1,-1,-1,-1,-1,-1,-1],"loss_changes":[4.290767E2,5.3775978E1,5.373343E1,9.2897034E-1,1.1127559E1,8.058746E0,1.062088E1,0E0,0E0,1.3487473E0,1.806184E0,5.2627563E-1,8.3795166E-1,0E0,1.4113525E1,3.3571053E-1,1.5369797E-1,3.4674302E-1,1.356504E-1,2.4836731E-1,0E0,3.9526978E0,5.3619385E-2,2.8704681E0,2.8873105E-2,0E0,5.7527542E-2,2.2053719E-3,6.2664986E-2,5.5936616E-2,7.9847634E-2,4.463792E-3,5.556315E-2,8.125687E-2,0E0,0E0,9.5089495E-2,0E0,0E0,0E0,0E0,0E0,0E0,0E0,0E0,0E0,0E0,0E0,0E0,0E0,0E0,0E0,0E0,0E0,0E0,0E0,0E0,0E0,0E0,0E0,0E0],"parents":[2147483647,0,0,1,1,2,2,3,3,4,4,5,5,6,6,9,9,10,10,11,11,12,12,14,14,15,15,16,16,17,17,18,18,19,19,21,21,22,22,23,23,24,24,26,26,27,27,28,28,29,29,30,30,31,31,32,32,33,33,36,36],"right_children":[2,4,6,8,10,12,14,-1,-1,16,18,20,22,-1,24,26,28,30,32,34,-1,36,38,40,42,-1,44,46,48,50,52,54,56,58,-1,-1,60,-1,-1,-1,-1,-1,-1,-1,-1,-1,-1,-1,-1,-1,-1,-1,-1,-1,-1,-1,-1,-1,-1,-1,-1],"split_conditions":[6.59211E-1,-5.922561E-1,2.5568826E0,-9.566997E-1,-5.1802818E-2,1.6376723E0,3.9404387E0,-1.4916303E-2,-1.0725284E-2,-2.7463946E-1,3.1957948E-1,1.2137959E0,1.4314376E0,3.9989572E-2,2.6167512E0,-4.4047728E-1,-2.0597933E-1,1.0749595E-1,9.5332336E-1,2.0882862E0,1.9089967E-2,2.129228E0,1.2137959E0,1.9422109E0,2.1645026E0,-7.918936E-3,-3.3476248E-1,-5.7292956E-1,-7.923054E-2,2.0526452E-2,2.6323456E-1,4.975872E-1,2.2942667E0,2.1804507E0,2.6848242E-3,2.490992E-2,1.6854075E0,8.201822E-3,2.9999483E-2,5.818635E-2,9.39849E-2,-7.289716E-4,4.547454E-3,-6.0807276E-3,-5.1360843E-3,-1.1210119E-3,-4.370541E-3,-3.3625884E-3,-2.12229E-3,-1.0507207E-3,-3.4617526E-5,1.1782162E-3,3.5850098E-3,6.160487E-3,1.0172526E-2,-1.0627074E-3,5.216165E-3,1.520729E-2,2.838237E-3,-1.6975483E-2,-2.4410964E-3],"split_indices":[57,57,57,40,57,57,57,0,0,57,50,57,22,0,17,57,57,57,5,44,0,41,53,5,0,0,57,22,38,57,57,5,0,41,0,0,0,0,0,0,0,0,0,0,0,0,0,0,0,0,0,0,0,0,0,0,0,0,0,0,0],"split_type":[0,0,0,0,0,0,0,0,0,0,0,0,0,0,0,0,0,0,0,0,0,0,0,0,0,0,0,0,0,0,0,0,0,0,0,0,0,0,0,0,0,0,0,0,0,0,0,0,0,0,0,0,0,0,0,0,0,0,0,0,0],"sum_hessian":[2.146E3,1.733E3,4.13E2,5.36E2,1.197E3,3.37E2,7.6E1,4.69E2,6.7E1,7.98E2,3.99E2,1.84E2,1.53E2,4.8E1,2.8E1,4.6E2,3.38E2,3.5E2,4.9E1,5.8E1,1.26E2,6.4E1,8.9E1,2.5E1,3E0,8.1E1,3.79E2,1.39E2,1.99E2,1.96E2,1.54E2,1.7E1,3.2E1,5.6E1,2E0,6.2E1,2E0,1E0,8.8E1,1.7E1,8E0,1E0,2E0,2.11E2,1.68E2,1E0,1.38E2,1.39E2,6E1,8.8E1,1.08E2,1.41E2,1.3E1,8E0,9E0,1E0,3.1E1,5.5E1,1E0,1E0,1E0],"tree_param":{"num_deleted":"0","num_feature":"60","num_nodes":"61","size_leaf_vector":"1"}},{"base_weights":[6.006653E-3,-2.0712498E-1,8.736347E-1,-4.6529534E-1,-9.41238E-2,7.109379E-1,1.5730872E0,-1.4473165E-2,-3.411608E-1,-1.6179213E-1,3.6491062E-2,5.9649587E-1,9.2326915E-1,3.795307E-2,2.1522446E0,-1.10943895E-2,-8.55049E-3,-2.0349303E-1,-1.19363055E-1,1.0063038E-2,2.105339E-1,4.656291E-1,6.450225E-1,7.715438E-1,2.9793918E-2,2.324906E0,5.3537797E-2,-2.3896167E-1,-1.8236084E-1,-1.3687697E-1,-9.027194E-2,-2.4046695E-2,3.917207E-2,2.5919077E-1,1.5609571E-1,4.7896338E-1,4.276213E-3,1.7871806E-2,7.067635E-1,2.538251E-2,-1.4385066E-2,5.5774074E-2,9.072164E-2,-7.180372E-4,3.127238E-3,-7.845237E-3,-6.5690763E-3,-1.2799898E-3,-5.482376E-3,-4.6098605E-3,-3.8030478E-3,-2.9707144E-3,-2.1511621E-3,-3.5742712E-5,-9.782248E-4,8.3133706E-4,2.00146E-3,3.7007178E-3,8.533646E-3,1.0587388E-3,4.9209297E-3,9.149962E-3,1.5082495E-2,6.081016E-3,2.1339888E-2],"categories":[],"categories_nodes":[],"categories_segments":[],"categories_sizes":[],"default_left":[0,0,0,0,0,0,0,0,0,0,0,0,0,0,0,0,0,0,0,0,0,0,0,0,0,0,0,0,0,0,0,0,0,0,0,0,0,0,0,0,0,0,0,0,0,0,0,0,0,0,0,0,0,0,0,0,0,0,0,0,0,0,0,0,0],"id":26,"left_children":[1,3,5,7,9,11,13,-1,15,17,19,21,23,-1,25,-1,-1,27,29,31,33,35,37,39,-1,41,43,45,47,49,51,53,55,57,59,61,-1,-1,63,-1,-1,-1,-1,-1,-1,-1,-1,-1,-1,-1,-1,-1,-1,-1,-1,-1,-1,-1,-1,-1,-1,-1,-1,-1,-1],"loss_changes":[3.9664722E2,5.019307E1,4.7018494E1,9.5053864E-1,1.0603252E1,7.8326416E0,1.1368546E1,0E0,2.37751E-3,1.3734798E0,1.8837208E0,1.1412277E0,4.9513245E-1,0E0,9.297058E0,0E0,0E0,2.5398636E-1,1.8838692E-1,3.554077E-1,1.02576256E-1,2.1175861E-1,7.505798E-2,4.322317E0,0E0,2.193283E0,1.4279324E-2,8.097649E-3,5.8116913E-3,2.1921635E-2,1.743567E-2,3.2244936E-2,5.9075296E-2,5.7566524E-2,2.105248E-2,1.0321808E-1,0E0,0E0,1.0017395E-2,0E0,0E0,0E0,0E0,0E0,0E0,0E0,0E0,0E0,0E0,0E0,0E0,0E0,0E0,0E0,0E0,0E0,0E0,0E0,0E0,0E0,0E0,0E0,0E0,0E0,0E0],"parents":[2147483647,0,0,1,1,2,2,3,3,4,4,5,5,6,6,8,8,9,9,10,10,11,11,12,12,14,14,17,17,18,18,19,19,20,20,21,21,22,22,23,23,25,25,26,26,27,27,28,28,29,29,30,30,31,31,32,32,33,33,34,34,35,35,38,38],"right_children":[2,4,6,8,10,12,14,-1,16,18,20,22,24,-1,26,-1,-1,28,30,32,34,36,38,40,-1,42,44,46,48,50,52,54,56,58,60,62,-1,-1,64,-1,-1,-1,-1,-1,-1,-1,-1,-1,-1,-1,-1,-1,-1,-1,-1,-1,-1,-1,-1,-1,-1,-1,-1,-1,-1],"split_conditions":[7.8712225E-1,-5.9745103E-1,2.5568826E0,-9.566997E-1,-6.0594223E-2,1.7994415E0,3.9404387E0,-1.4473165E-2,-9.070029E-1,-2.9258555E-1,3.1957948E-1,1.238935E0,1.5256728E0,3.795307E-2,2.1645026E0,-1.10943895E-2,-8.55049E-3,-3.908894E-1,-1.8058598E-1,6.622722E-2,2.5083482E0,1.8641418E0,1.5256728E0,2.129228E0,2.9793918E-2,1.9437367E0,2.1645026E0,-4.593679E-1,-5.829925E-1,-2.5494963E-1,-1.1087233E-1,-6.9530934E-2,1.827678E-1,-2.2534221E-1,2.3998457E-1,6.59211E-1,4.276213E-3,1.7871806E-2,1.115647E-1,2.538251E-2,-1.4385066E-2,5.5774074E-2,9.072164E-2,-7.180372E-4,3.127238E-3,-7.845237E-3,-6.5690763E-3,-1.2799898E-3,-5.482376E-3,-4.6098605E-3,-3.8030478E-3,-2.9707144E-3,-2.1511621E-3,-3.5742712E-5,-9.782248E-4,8.3133706E-4,2.00146E-3,3.7007178E-3,8.533646E-3,1.0587388E-3,4.9209297E-3,9.149962E-3,1.5082495E-2,6.081016E-3,2.1339888E-2],"split_indices":[58,54,58,40,58,58,58,0,2,58,58,58,31,0,1,0,0,58,58,58,6,43,58,41,0,6,0,58,16,58,58,7,58,1,49,51,0,0,1,0,0,0,0,0,0,0,0,0,0,0,0,0,0,0,0,0,0,0,0,0,0,0,0,0,0],"split_type":[0,0,0,0,0,0,0,0,0,0,0,0,0,0,0,0,0,0,0,0,0,0,0,0,0,0,0,0,0,0,0,0,0,0,0,0,0,0,0,0,0,0,0,0,0,0,0,0,0,0,0,0,0,0,0,0,0,0,0,0,0,0,0,0,0],"sum_hessian":[2.143E3,1.721E3,4.22E2,5.23E2,1.198E3,3.44E2,7.8E1,4.57E2,6.6E1,7.89E2,4.09E2,2.26E2,1.18E2,5.3E1,2.5E1,4E1,2.6E1,3.96E2,3.93E2,3.56E2,5.3E1,6.4E1,1.62E2,4.1E1,7.7E1,2.3E1,2E0,1.44E2,2.52E2,2.43E2,1.5E2,1.64E2,1.92E2,2.6E1,2.7E1,6.1E1,3E0,9.6E1,6.6E1,3.9E1,2E0,1.6E1,7E0,1E0,1E0,6.2E1,8.2E1,1E0,2.51E2,8.6E1,1.57E2,9.9E1,5.1E1,4.5E1,1.19E2,1.37E2,5.5E1,5E0,2.1E1,2E0,2.5E1,9E0,5.2E1,1E0,6.5E1],"tree_param":{"num_deleted":"0","num_feature":"60","num_nodes":"65","size_leaf_vector":"1"}},{"base_weights":[-2.1161088E-3,-2.0540145E-1,8.66562E-1,-4.528303E-1,-9.53771E-2,7.676073E-1,2.1891732E0,-1.4039171E-2,-1.011665E-2,-1.610548E-1,2.9622482E-2,5.859651E-1,9.990368E-1,2.272E0,-7.072663E-4,-2.0242774E-1,-1.2427846E-1,-6.157945E-4,1.7295207E-1,4.256335E-1,6.390889E-1,2.4707258E-2,3.360679E-2,5.293911E-2,8.548683E-2,-7.440489E-3,-1.8705323E-1,-1.4099677E-1,-9.524009E-2,-3.1906605E-2,3.701629E-2,1.17824234E-1,2.2943872E-1,1.3036106E-2,3.6158108E-3,5.816257E-1,7.0727724E-1,-5.925136E-3,-5.1229605E-3,-4.4993744E-3,-3.80439E-3,-2.8810543E-3,4.4376487E-4,-1.3955362E-3,-4.4407797E-4,4.1738985E-4,1.4563635E-3,2.3877565E-3,4.0815203E-3,7.835921E-3,4.668037E-3,1.7610079E-2,6.739519E-3,5.9897997E-3,2.1354182E-2],"categories":[],"categories_nodes":[],"categories_segments":[],"categories_sizes":[],"default_left":[0,0,0,0,0,0,0,0,0,0,0,0,0,0,0,0,0,0,0,0,0,0,0,0,0,0,0,0,0,0,0,0,0,0,0,0,0,0,0,0,0,0,0,0,0,0,0,0,0,0,0,0,0,0,0],"id":27,"left_children":[1,3,5,7,9,11,13,-1,-1,15,17,19,21,23,-1,25,27,29,31,33,35,-1,-1,-1,-1,-1,37,39,41,43,45,47,49,-1,-1,51,53,-1,-1,-1,-1,-1,-1,-1,-1,-1,-1,-1,-1,-1,-1,-1,-1,-1,-1],"loss_changes":[3.8178796E2,4.7651855E1,5.1979828E1,7.857361E-1,9.971327E0,1.5514893E1,5.185257E0,0E0,0E0,1.1859932E0,1.8160691E0,1.576271E0,2.6285095E0,2.8834534E0,0E0,2.1504402E-1,1.9241142E-1,4.097869E-1,2.0028758E-1,1.0246563E-1,2.1947479E-1,0E0,0E0,0E0,0E0,0E0,1.444912E-2,1.4997482E-2,1.5242815E-2,4.6794564E-2,4.1409716E-2,1.6348183E-2,4.1431665E-2,0E0,0E0,4.6634674E-2,1.650238E-2,0E0,0E0,0E0,0E0,0E0,0E0,0E0,0E0,0E0,0E0,0E0,0E0,0E0,0E0,0E0,0E0,0E0,0E0],"parents":[2147483647,0,0,1,1,2,2,3,3,4,4,5,5,6,6,9,9,10,10,11,11,12,12,13,13,15,15,16,16,17,17,18,18,19,19,20,20,26,26,27,27,28,28,29,29,30,30,31,31,32,32,35,35,36,36],"right_children":[2,4,6,8,10,12,14,-1,-1,16,18,20,22,24,-1,26,28,30,32,34,36,-1,-1,-1,-1,-1,38,40,42,44,46,48,50,-1,-1,52,54,-1,-1,-1,-1,-1,-1,-1,-1,-1,-1,-1,-1,-1,-1,-1,-1,-1,-1],"split_conditions":[7.8712225E-1,-5.8829635E-1,3.9404387E0,-9.6610874E-1,-8.929343E-2,1.8334446E0,2.1645026E0,-1.4039171E-2,-1.011665E-2,-3.084246E-1,2.3998457E-1,1.238935E0,2.1804507E0,1.9527098E0,-7.072663E-4,-4.2776245E-1,-1.987137E-1,7.523659E-2,4.3862668E-1,1.5562611E0,1.5256728E0,2.4707258E-2,3.360679E-2,5.293911E-2,8.548683E-2,-7.440489E-3,-3.5343513E-1,-2.5189805E-1,-7.373538E-3,3.3795831E-3,1.2504242E-1,2.6323456E-1,2.0118155E0,1.3036106E-2,3.6158108E-3,2.0882862E0,1.0215572E-1,-5.925136E-3,-5.1229605E-3,-4.4993744E-3,-3.80439E-3,-2.8810543E-3,4.4376487E-4,-1.3955362E-3,-4.4407797E-4,4.1738985E-4,1.4563635E-3,2.3877565E-3,4.0815203E-3,7.835921E-3,4.668037E-3,1.7610079E-2,6.739519E-3,5.9897997E-3,2.1354182E-2],"split_indices":[59,59,58,34,59,59,1,0,0,59,59,59,59,7,0,59,59,59,59,51,59,0,0,0,0,0,59,59,57,59,59,54,30,0,0,47,3,0,0,0,0,0,0,0,0,0,0,0,0,0,0,0,0,0,0],"split_type":[0,0,0,0,0,0,0,0,0,0,0,0,0,0,0,0,0,0,0,0,0,0,0,0,0,0,0,0,0,0,0,0,0,0,0,0,0,0,0,0,0,0,0,0,0,0,0,0,0,0,0,0,0,0,0],"sum_hessian":[2.16E3,1.751E3,4.09E2,5.38E2,1.213E3,3.82E2,2.7E1,4.73E2,6.5E1,7.95E2,4.18E2,2.16E2,1.66E2,2.6E1,1E0,3.72E2,4.23E2,3.46E2,7.2E1,5.6E1,1.6E2,7.1E1,9.5E1,1.6E1,1E1,9E1,2.82E2,2.66E2,1.57E2,1.89E2,1.57E2,3.8E1,3.4E1,5.4E1,2E0,9.2E1,6.8E1,1.65E2,1.17E2,1.57E2,1.09E2,1.56E2,1E0,1.01E2,8.8E1,5.3E1,1.04E2,1.4E1,2.4E1,2.2E1,1.2E1,9E1,2E0,1E0,6.7E1],"tree_param":{"num_deleted":"0","num_feature":"60","num_nodes":"55","size_leaf_vector":"1"}},{"base_weights":[9.658799E-3,-1.9908813E-1,8.2302976E-1,-4.2803967E-1,-8.754808E-2,7.3147374E-1,1.9532049E0,-4.503473E-1,-8.377987E-3,-1.44458E-1,3.5317328E-2,5.7992756E-1,9.981671E-1,2.0177097E0,-6.966573E-4,-1.3693141E-2,-1.1384443E-2,-1.829098E-1,-1.0350106E-1,1.2318391E-2,1.4860193E-1,4.108461E-1,6.412712E-1,8.729085E-1,3.310309E-2,1.6520731E0,8.183772E-2,-2.0484935E-1,-1.6177467E-1,-1.2257492E-1,-7.592528E-2,-1.7500298E-2,3.9605677E-2,9.630767E-2,1.7563184E-1,4.1525325E-1,1.4690923E-3,5.662284E-1,7.066083E-1,7.0537766E-3,2.635982E-2,1.3335669E-2,5.0602686E-2,-7.146963E-3,-5.8621354E-3,-1.1839456E-3,-4.8651886E-3,-3.982737E-3,-3.2826697E-3,-2.1886404E-3,-4.567041E-3,-7.9687947E-4,-2.0543668E-4,8.346251E-4,1.6438239E-3,3.0040988E-3,1.8105895E-4,5.5008233E-3,6.529266E-4,8.987549E-3,1.3152214E-2,4.9701636E-3,1.7063444E-2,5.899953E-3,2.1296147E-2],"categories":[],"categories_nodes":[],"categories_segments":[],"categories_sizes":[],"default_left":[0,0,0,0,0,0,0,0,0,0,0,0,0,0,0,0,0,0,0,0,0,0,0,0,0,0,0,0,0,0,0,0,0,0,0,0,0,0,0,0,0,0,0,0,0,0,0,0,0,0,0,0,0,0,0,0,0,0,0,0,0,0,0,0,0],"id":28,"left_children":[1,3,5,7,9,11,13,15,-1,17,19,21,23,25,-1,-1,-1,27,29,31,33,35,37,39,-1,41,-1,43,45,47,49,51,53,55,57,59,-1,61,63,-1,-1,-1,-1,-1,-1,-1,-1,-1,-1,-1,-1,-1,-1,-1,-1,-1,-1,-1,-1,-1,-1,-1,-1,-1,-1],"loss_changes":[3.61644E2,4.324819E1,4.358261E1,1.716156E0,7.9832687E0,1.5749344E1,4.126503E0,3.440857E-2,0E0,1.209465E0,9.4133353E-1,2.4332733E0,9.48761E-1,3.5433578E0,0E0,0E0,0E0,1.5280342E-1,1.9056416E-1,2.4642178E-1,6.9309354E-2,9.4493866E-2,5.265808E-1,5.38826E-2,0E0,2.1347427E-1,0E0,1.4300346E-2,3.7813187E-3,1.5340567E-2,2.470994E-2,1.3815802E-2,2.6756555E-2,7.345572E-3,4.2389393E-2,5.8810234E-2,0E0,8.773804E-4,2.1812439E-2,0E0,0E0,0E0,0E0,0E0,0E0,0E0,0E0,0E0,0E0,0E0,0E0,0E0,0E0,0E0,0E0,0E0,0E0,0E0,0E0,0E0,0E0,0E0,0E0,0E0,0E0],"parents":[2147483647,0,0,1,1,2,2,3,3,4,4,5,5,6,6,7,7,9,9,10,10,11,11,12,12,13,13,17,17,18,18,19,19,20,20,21,21,22,22,23,23,25,25,27,27,28,28,29,29,30,30,31,31,32,32,33,33,34,34,35,35,37,37,38,38],"right_children":[2,4,6,8,10,12,14,16,-1,18,20,22,24,26,-1,-1,-1,28,30,32,34,36,38,40,-1,42,-1,44,46,48,50,52,54,56,58,60,-1,62,64,-1,-1,-1,-1,-1,-1,-1,-1,-1,-1,-1,-1,-1,-1,-1,-1,-1,-1,-1,-1,-1,-1,-1,-1,-1,-1],"split_conditions":[6.59211E-1,-5.111718E-1,3.0940301E0,-9.513595E-1,-2.3539547E-2,1.9247371E0,2.4367092E0,-9.659634E-1,-8.377987E-3,-2.7463946E-1,2.3998457E-1,1.238935E0,2.2942667E0,3.0940301E0,-6.966573E-4,-1.3693141E-2,-1.1384443E-2,-3.570316E-1,-1.7074105E-1,8.3773695E-2,2.6323456E-1,2.0882862E0,1.5256728E0,1.0636978E-1,3.310309E-2,1.3823584E0,8.183772E-2,-4.5849603E-1,-6.0805887E-1,-2.1444377E-1,1.5037669E0,2.6956528E-2,1.5573968E-1,4.329876E0,1.2137959E0,6.59211E-1,1.4690923E-3,3.1957948E-1,9.4853766E-2,7.0537766E-3,2.635982E-2,1.3335669E-2,5.0602686E-2,-7.146963E-3,-5.8621354E-3,-1.1839456E-3,-4.8651886E-3,-3.982737E-3,-3.2826697E-3,-2.1886404E-3,-4.567041E-3,-7.9687947E-4,-2.0543668E-4,8.346251E-4,1.6438239E-3,3.0040988E-3,1.8105895E-4,5.5008233E-3,6.529266E-4,8.987549E-3,1.3152214E-2,4.9701636E-3,1.7063444E-2,5.899953E-3,2.1296147E-2],"split_indices":[59,59,59,7,59,59,6,59,0,59,59,59,58,32,0,0,0,59,59,59,50,42,59,11,0,4,0,59,7,59,5,59,59,16,51,52,0,33,4,0,0,0,0,0,0,0,0,0,0,0,0,0,0,0,0,0,0,0,0,0,0,0,0,0,0],"split_type":[0,0,0,0,0,0,0,0,0,0,0,0,0,0,0,0,0,0,0,0,0,0,0,0,0,0,0,0,0,0,0,0,0,0,0,0,0,0,0,0,0,0,0,0,0,0,0,0,0,0,0,0,0,0,0,0,0,0,0,0,0,0,0,0,0],"sum_hessian":[2.128E3,1.694E3,4.34E2,5.54E2,1.14E3,4.03E2,3.1E1,4.8E2,7.4E1,7.79E2,3.61E2,2.59E2,1.44E2,3E1,1E0,4.37E2,4.3E1,4E2,3.79E2,3.01E2,6E1,7.1E1,1.88E2,7E1,7.4E1,2.2E1,8E0,1.92E2,2.08E2,2.22E2,1.57E2,1.44E2,1.57E2,2.2E1,3.8E1,7E1,1E0,9.2E1,9.6E1,1E0,6.9E1,1E0,2.1E1,3.7E1,1.55E2,1E0,2.07E2,1.2E2,1.02E2,1.53E2,4E0,7.7E1,6.7E1,9E1,6.7E1,2.1E1,1E0,3.6E1,2E0,1.4E1,5.6E1,1E0,9.1E1,1E0,9.5E1],"tree_param":{"num_deleted":"0","num_feature":"60","num_nodes":"65","size_leaf_vector":"1"}},{"base_weights":[1.2298186E-3,-1.8930373E-1,8.074363E-1,-4.1342032E-1,-8.0119E-2,6.441534E-1,1.4727736E0,-4.377683E-1,-8.037334E-3,-1.4034796E-1,3.2785475E-2,5.1828194E-1,8.115824E-1,1.2968582E0,7.7762604E-2,-1.3282667E-2,-1.1058436E-2,-1.7135178E-1,-9.70453E-2,8.411426E-3,1.7024523E-1,4.4204786E-1,1.7139101E-2,7.420875E-1,2.7527733E-2,1.3477827E0,9.419609E-2,-5.981978E-3,-1.5583383E-1,-1.111898E-1,-7.33349E-2,-2.0968677E-2,3.341756E-2,1.7439766E-1,-1.2457881E-3,4.5118675E-1,4.4902172E-2,5.811454E-3,2.2380844E-2,3.5229128E-2,5.322197E-2,-6.862074E-4,4.225315E-3,-5.0740764E-3,-4.376938E-3,-3.3708324E-3,-7.6240936E-4,-2.5184115E-3,-1.563966E-3,-2.0282445E-4,-9.851811E-4,4.3422377E-4,1.2945705E-3,4.5993547E-3,8.375766E-3,9.000556E-3,1.4111446E-2,-1.8499262E-4,2.2055903E-3],"categories":[],"categories_nodes":[],"categories_segments":[],"categories_sizes":[],"default_left":[0,0,0,0,0,0,0,0,0,0,0,0,0,0,0,0,0,0,0,0,0,0,0,0,0,0,0,0,0,0,0,0,0,0,0,0,0,0,0,0,0,0,0,0,0,0,0,0,0,0,0,0,0,0,0,0,0,0,0],"id":29,"left_children":[1,3,5,7,9,11,13,15,-1,17,19,21,23,25,-1,-1,-1,27,29,31,33,35,-1,37,-1,39,41,-1,43,45,47,49,51,53,-1,55,57,-1,-1,-1,-1,-1,-1,-1,-1,-1,-1,-1,-1,-1,-1,-1,-1,-1,-1,-1,-1,-1,-1],"loss_changes":[3.3348517E2,4.2936386E1,4.413614E1,1.9198608E0,8.042341E0,6.639328E0,1.2587692E1,6.134033E-3,0E0,1.0184765E0,1.3789538E0,